<?xml version="1.0"?>
<opencv_storage>
<cascade>
  <stageType>BOOST</stageType>
  <featureType>LBP</featureType>
  <height>40</height>
  <width>80</width>
  <stageParams>
    <boostType>GAB</boostType>
    <minHitRate>9.9900001287460327e-01</minHitRate>
    <maxFalseAlarm>5.0000000000000000e-01</maxFalseAlarm>
    <weightTrimRate>9.4999999999999996e-01</weightTrimRate>
    <maxDepth>1</maxDepth>
    <maxWeakCount>100</maxWeakCount></stageParams>
  <featureParams>
    <maxCatCount>256</maxCatCount>
    <featSize>1</featSize></featureParams>
  <stageNum>20</stageNum>
  <stages>
    <!-- stage 0 -->
    <_>
      <maxWeakCount>6</maxWeakCount>
      <stageThreshold>-1.2537447214126587e+00</stageThreshold>
      <weakClassifiers>
        <_>
          <internalNodes>
            0 -1 77 -1812138017 2071953397 -1073786763 -1086450576
            -1086407114 -1073938636 800868656 795418632</internalNodes>
          <leafValues>
            -4.6924430131912231e-01 6.4694470167160034e-01</leafValues></_>
        <_>
          <internalNodes>
            0 -1 16 -929695766 -1660874495 555970776 -649543616
            -780037638 1175011848 -922115940 78767360</internalNodes>
          <leafValues>
            -6.1006295680999756e-01 4.9426177144050598e-01</leafValues></_>
        <_>
          <internalNodes>
            0 -1 40 -525610434 1260061016 -2063314935 -1591607022
            -2097118898 -1475735552 1152155805 1339532835</internalNodes>
          <leafValues>
            -5.1850908994674683e-01 5.1267158985137939e-01</leafValues></_>
        <_>
          <internalNodes>
            0 -1 92 -719062604 906314009 1342346773 806420736
            -1019178968 335577101 -2104424166 69196619</internalNodes>
          <leafValues>
            -5.9306544065475464e-01 4.7562098503112793e-01</leafValues></_>
        <_>
          <internalNodes>
            0 -1 0 -2126320914 1360749696 -2147352434 -2080324590
            138494083 -1957526400 -1879031669 1497883335</internalNodes>
          <leafValues>
            -5.3302264213562012e-01 5.1206731796264648e-01</leafValues></_>
        <_>
          <internalNodes>
            0 -1 30 -251018930 1477756432 33554440 1897382171 38371340
            33685504 1354809482 813007340</internalNodes>
          <leafValues>
            -6.7925506830215454e-01 3.9624318480491638e-01</leafValues></_></weakClassifiers></_>
    <!-- stage 1 -->
    <_>
      <maxWeakCount>10</maxWeakCount>
      <stageThreshold>-9.4735193252563477e-01</stageThreshold>
      <weakClassifiers>
        <_>
          <internalNodes>
            0 -1 7 -822302978 2012123063 652396092 -2108758920
            1013327380 1036351317 1691436070 1702329847</internalNodes>
          <leafValues>
            -4.7698745131492615e-01 5.5971479415893555e-01</leafValues></_>
        <_>
          <internalNodes>
            0 -1 149 -111426680 403050497 1612754953 2117645 566920200
            763494530 671201384 551012443</internalNodes>
          <leafValues>
            -5.5402255058288574e-01 4.2457020282745361e-01</leafValues></_>
        <_>
          <internalNodes>
            0 -1 44 -989556194 1553530900 16794912 151945802 -770318194
            -926474235 42701528 529146246</internalNodes>
          <leafValues>
            -5.6351161003112793e-01 4.0615499019622803e-01</leafValues></_>
        <_>
          <internalNodes>
            0 -1 28 1363407306 -1794027327 536871052 84266319
            -2012569462 940155040 168411274 559908235</internalNodes>
          <leafValues>
            -5.0720256567001343e-01 4.5206028223037720e-01</leafValues></_>
        <_>
          <internalNodes>
            0 -1 145 -220700026 1881766060 625685876 -1757083493
            1870438566 862233329 1368118666 -1021606241</internalNodes>
          <leafValues>
            -3.8311940431594849e-01 5.9726208448410034e-01</leafValues></_>
        <_>
          <internalNodes>
            0 -1 80 -81156232 -202547344 -2129945 -1082779607 -10046430
            -624951435 1322159389 -295018935</internalNodes>
          <leafValues>
            -4.1721382737159729e-01 5.7122200727462769e-01</leafValues></_>
        <_>
          <internalNodes>
            0 -1 56 1393514475 -665518075 246147 -687336817 -1602039797
            -1073446895 136841608 2104165388</internalNodes>
          <leafValues>
            -4.8948511481285095e-01 4.7308200597763062e-01</leafValues></_>
        <_>
          <internalNodes>
            0 -1 10 -1034263601 1006765142 17863114 1087506952
            1644372113 -788365307 -1719627718 1455897538</internalNodes>
          <leafValues>
            -5.6480115652084351e-01 4.2695474624633789e-01</leafValues></_>
        <_>
          <internalNodes>
            0 -1 41 1290226783 -1121426648 1824004821 706870376
            140961514 -48945428 1846333676 439050150</internalNodes>
          <leafValues>
            -4.5371562242507935e-01 5.5032056570053101e-01</leafValues></_>
        <_>
          <internalNodes>
            0 -1 136 -1012936622 -151672224 -160818147 1598962414
            -1723279394 -167092860 -580613397 -787750450</internalNodes>
          <leafValues>
            -4.1809678077697754e-01 6.8177700042724609e-01</leafValues></_></weakClassifiers></_>
    <!-- stage 2 -->
    <_>
      <maxWeakCount>8</maxWeakCount>
      <stageThreshold>-1.2143955230712891e+00</stageThreshold>
      <weakClassifiers>
        <_>
          <internalNodes>
            0 -1 99 -83406024 1896366148 102818 488751147 -2138537320
            142639104 36179992 135219</internalNodes>
          <leafValues>
            -5.5497384071350098e-01 5.0246304273605347e-01</leafValues></_>
        <_>
          <internalNodes>
            0 -1 66 1147128279 573330963 -1001715566 1073922320
            -1591131343 -221926919 -993351808 -1596530425</internalNodes>
          <leafValues>
            -4.7114115953445435e-01 4.7307083010673523e-01</leafValues></_>
        <_>
          <internalNodes>
            0 -1 1 -573648390 -251248604 134223896 -1660599739
            -2010402584 -1040177152 1761694449 370393667</internalNodes>
          <leafValues>
            -5.0718212127685547e-01 4.5980197191238403e-01</leafValues></_>
        <_>
          <internalNodes>
            0 -1 84 17781523 1343721552 -2147459052 755153298 557903
            136331274 1250439180 133929736</internalNodes>
          <leafValues>
            -5.8192509412765503e-01 4.2182788252830505e-01</leafValues></_>
        <_>
          <internalNodes>
            0 -1 121 116199795 -912210873 -503168303 -802414450
            -1039990100 -649887742 1102692449 -665590156</internalNodes>
          <leafValues>
            -4.8094135522842407e-01 4.9078387022018433e-01</leafValues></_>
        <_>
          <internalNodes>
            0 -1 13 -1941516914 -821067422 1082131456 -452542399
            278478981 -2077653855 -1585438705 1743224875</internalNodes>
          <leafValues>
            -5.1693999767303467e-01 4.6738854050636292e-01</leafValues></_>
        <_>
          <internalNodes>
            0 -1 163 -506761292 553832705 1610842512 820097 -796425980
            302055436 -469511810 149103435</internalNodes>
          <leafValues>
            -6.1241400241851807e-01 3.9266195893287659e-01</leafValues></_>
        <_>
          <internalNodes>
            0 -1 88 -2127830487 388211012 274862219 -2020596132
            -1966818855 -1316257768 -1604791829 1861142801</internalNodes>
          <leafValues>
            -5.1705187559127808e-01 4.8271176218986511e-01</leafValues></_></weakClassifiers></_>
    <!-- stage 3 -->
    <_>
      <maxWeakCount>9</maxWeakCount>
      <stageThreshold>-1.2458648681640625e+00</stageThreshold>
      <weakClassifiers>
        <_>
          <internalNodes>
            0 -1 124 2109732688 2142082 1879006840 234487735 2147350521
            528023413 -1082168200 440780606</internalNodes>
          <leafValues>
            -3.4823089838027954e-01 5.5221074819564819e-01</leafValues></_>
        <_>
          <internalNodes>
            0 -1 51 658351135 490110834 -268521803 755932862 -277479972
            -13123777 -1913380375 678143740</internalNodes>
          <leafValues>
            -4.2512336373329163e-01 4.7009909152984619e-01</leafValues></_>
        <_>
          <internalNodes>
            0 -1 48 -708583280 1507353105 134748241 -1123397559
            -912269398 -1182138360 -657205105 -1309891028</internalNodes>
          <leafValues>
            -4.0630716085433960e-01 4.8644787073135376e-01</leafValues></_>
        <_>
          <internalNodes>
            0 -1 34 1073994390 1499267662 4264097 1494299584 420316298
            1260159104 -54405700 1627128072</internalNodes>
          <leafValues>
            -4.9493792653083801e-01 4.1089016199111938e-01</leafValues></_>
        <_>
          <internalNodes>
            0 -1 156 -597965557 822161667 268505109 680689979
            -1065254142 -1718615674 -1668808477 -529532145</internalNodes>
          <leafValues>
            -4.3095472455024719e-01 5.1028358936309814e-01</leafValues></_>
        <_>
          <internalNodes>
            0 -1 42 783284931 -3306465 -335835567 -214300392 1180692176
            1566887536 265694303 -827684309</internalNodes>
          <leafValues>
            -3.6716046929359436e-01 6.1582505702972412e-01</leafValues></_>
        <_>
          <internalNodes>
            0 -1 14 -1005133158 -788164349 33554512 445121030 1216921732
            973210148 -1971207694 1912019114</internalNodes>
          <leafValues>
            -5.5213856697082520e-01 4.4408655166625977e-01</leafValues></_>
        <_>
          <internalNodes>
            0 -1 93 805779829 -788463487 4210704 1359127816 278540475
            -2004254613 -2000547064 1571586088</internalNodes>
          <leafValues>
            -5.7886463403701782e-01 4.3344336748123169e-01</leafValues></_>
        <_>
          <internalNodes>
            0 -1 101 154523487 269598730 822313435 319127570 -1726984100
            -1341325303 705479140 1383437251</internalNodes>
          <leafValues>
            -5.4128396511077881e-01 4.6118614077568054e-01</leafValues></_></weakClassifiers></_>
    <!-- stage 4 -->
    <_>
      <maxWeakCount>9</maxWeakCount>
      <stageThreshold>-4.7594943642616272e-01</stageThreshold>
      <weakClassifiers>
        <_>
          <internalNodes>
            0 -1 22 -5579810 -16855690 -1915999672 -573645044 -5397106
            400908116 397260730 1627455626</internalNodes>
          <leafValues>
            -3.0662021040916443e-01 5.6140351295471191e-01</leafValues></_>
        <_>
          <internalNodes>
            0 -1 39 -1195850036 -139743666 1662892243 859543084
            -1899229042 530798416 1358259389 -6314838</internalNodes>
          <leafValues>
            -3.5693946480751038e-01 5.1292836666107178e-01</leafValues></_>
        <_>
          <internalNodes>
            0 -1 65 1896960601 1367540229 268538129 134255120
            -1993844644 -1744568052 -888534844 1132102042</internalNodes>
          <leafValues>
            -5.2642130851745605e-01 3.6982637643814087e-01</leafValues></_>
        <_>
          <internalNodes>
            0 -1 132 -888649485 -142112168 791341185 297593771
            -360687683 -85037138 -536893960 -322439956</internalNodes>
          <leafValues>
            -3.3109363913536072e-01 6.0606151819229126e-01</leafValues></_>
        <_>
          <internalNodes>
            0 -1 173 -1931096251 1257434685 -555058497 -1599569948
            -138971642 -1535803873 -152051994 -498291761</internalNodes>
          <leafValues>
            -4.5224723219871521e-01 4.9429598450660706e-01</leafValues></_>
        <_>
          <internalNodes>
            0 -1 3 -1056126198 -1182216176 268501860 -1455239148
            -2130108209 1787068445 405373098 1097319651</internalNodes>
          <leafValues>
            -5.9688717126846313e-01 3.7206926941871643e-01</leafValues></_>
        <_>
          <internalNodes>
            0 -1 117 105107186 -1759788973 822284585 295731467 41944059
            -1684897649 1904345336 -567784946</internalNodes>
          <leafValues>
            -4.6509149670600891e-01 5.4865503311157227e-01</leafValues></_>
        <_>
          <internalNodes>
            0 -1 164 1075823953 153502083 67330052 302141443 1075577244
            -1408270173 138839436 620492903</internalNodes>
          <leafValues>
            -4.8089087009429932e-01 5.1556503772735596e-01</leafValues></_>
        <_>
          <internalNodes>
            0 -1 103 -829959764 290146311 16908494 -1784565119 134217976
            -1592885243 1215029384 1609182096</internalNodes>
          <leafValues>
            -5.6285375356674194e-01 4.3271780014038086e-01</leafValues></_></weakClassifiers></_>
    <!-- stage 5 -->
    <_>
      <maxWeakCount>9</maxWeakCount>
      <stageThreshold>-4.8081380128860474e-01</stageThreshold>
      <weakClassifiers>
        <_>
          <internalNodes>
            0 -1 63 495491296 -141532464 -1972079375 2034314544
            2093013198 -1079765340 524350104 51383728</internalNodes>
          <leafValues>
            -3.6842104792594910e-01 5.2622061967849731e-01</leafValues></_>
        <_>
          <internalNodes>
            0 -1 89 -130234120 -124041024 30962032 -772990960 -485705048
            -1218077528 104376987 521896538</internalNodes>
          <leafValues>
            -3.9777082204818726e-01 5.1692837476730347e-01</leafValues></_>
        <_>
          <internalNodes>
            0 -1 180 1193842424 -73516183 -1100137315 494864413
            -833441350 -1596706881 -1890340983 416487406</internalNodes>
          <leafValues>
            -4.0722864866256714e-01 5.3896284103393555e-01</leafValues></_>
        <_>
          <internalNodes>
            0 -1 148 -788508464 -193396724 553662809 -782941875
            671361242 -728104960 8526073 721486941</internalNodes>
          <leafValues>
            -4.6684229373931885e-01 4.7125482559204102e-01</leafValues></_>
        <_>
          <internalNodes>
            0 -1 162 -577714472 -39097607 -8405121 1465992820
            -2002733842 -1345295568 -1213179169 -612151022</internalNodes>
          <leafValues>
            -3.9159855246543884e-01 6.3208663463592529e-01</leafValues></_>
        <_>
          <internalNodes>
            0 -1 19 -1941925126 -611811038 1913684250 499863560 16842925
            1611137088 1120411792 1336222671</internalNodes>
          <leafValues>
            -5.3915536403656006e-01 4.7365835309028625e-01</leafValues></_>
        <_>
          <internalNodes>
            0 -1 131 571021904 1972387840 3426719 1606221893 -2146952024
            -1065353080 553706237 2136152218</internalNodes>
          <leafValues>
            -5.5937838554382324e-01 4.3872898817062378e-01</leafValues></_>
        <_>
          <internalNodes>
            0 -1 70 844630720 2063900802 1359036629 1166086209 813842586
            -2004679520 -1289729143 1453197467</internalNodes>
          <leafValues>
            -5.8438879251480103e-01 4.6761399507522583e-01</leafValues></_>
        <_>
          <internalNodes>
            0 -1 12 -862139585 1497882644 -1610415935 -2078243840
            1082859166 -876083200 -1727734716 970433235</internalNodes>
          <leafValues>
            -5.1157528162002563e-01 5.1044076681137085e-01</leafValues></_></weakClassifiers></_>
    <!-- stage 6 -->
    <_>
      <maxWeakCount>8</maxWeakCount>
      <stageThreshold>-4.8009291291236877e-01</stageThreshold>
      <weakClassifiers>
        <_>
          <internalNodes>
            0 -1 76 925258235 -1745272904 -1346376963 506866730
            -1241694881 -8519713 468469716 199231136</internalNodes>
          <leafValues>
            -4.7685185074806213e-01 5.1883560419082642e-01</leafValues></_>
        <_>
          <internalNodes>
            0 -1 143 -628566896 -785015624 1005090347 -614623856
            -1244864342 -1203868660 436252088 -83164213</internalNodes>
          <leafValues>
            -3.2111349701881409e-01 7.0916432142257690e-01</leafValues></_>
        <_>
          <internalNodes>
            0 -1 47 1932562576 -743667808 -746272016 2003176672
            -1238986598 -1862783764 -940202005 465240248</internalNodes>
          <leafValues>
            -4.3863758444786072e-01 5.5128306150436401e-01</leafValues></_>
        <_>
          <internalNodes>
            0 -1 96 -584525608 448294116 900546525 1428947441
            -1670844744 -1427514923 437552379 185206155</internalNodes>
          <leafValues>
            -4.6842753887176514e-01 5.5833905935287476e-01</leafValues></_>
        <_>
          <internalNodes>
            0 -1 153 -618229552 -683068544 980031721 -135578916
            -1205296968 -1397801957 -811551541 -14692213</internalNodes>
          <leafValues>
            -3.2597064971923828e-01 8.4628498554229736e-01</leafValues></_>
        <_>
          <internalNodes>
            0 -1 128 -794152652 -103270064 1040087167 498205877
            -236935256 -1141093624 -1235247394 -1957617381</internalNodes>
          <leafValues>
            -4.3513694405555725e-01 6.3897407054901123e-01</leafValues></_>
        <_>
          <internalNodes>
            0 -1 137 -1818208128 -742650672 -1344340036 1432949101
            -1560755726 -2028164796 203601887 -1701903208</internalNodes>
          <leafValues>
            -4.6685528755187988e-01 5.9674459695816040e-01</leafValues></_>
        <_>
          <internalNodes>
            0 -1 184 456143056 1444010009 1224841660 -585957269
            805448416 -97910608 704684731 161744520</internalNodes>
          <leafValues>
            -5.5947428941726685e-01 5.1249146461486816e-01</leafValues></_></weakClassifiers></_>
    <!-- stage 7 -->
    <_>
      <maxWeakCount>9</maxWeakCount>
      <stageThreshold>-6.9938534498214722e-01</stageThreshold>
      <weakClassifiers>
        <_>
          <internalNodes>
            0 -1 133 1341125904 536919920 1215452236 -1342449459
            -42154348 778370557 -430222156 512061286</internalNodes>
          <leafValues>
            -3.7684211134910583e-01 5.1466667652130127e-01</leafValues></_>
        <_>
          <internalNodes>
            0 -1 9 1128647086 -1723555132 1627390552 -1886657686 73218
            -268173272 1217255906 224621926</internalNodes>
          <leafValues>
            -5.0905108451843262e-01 3.5997945070266724e-01</leafValues></_>
        <_>
          <internalNodes>
            0 -1 24 1774896078 -780592750 252082255 -43454480
            -1141572120 -637747511 863089835 -807698226</internalNodes>
          <leafValues>
            -3.2130622863769531e-01 5.9731781482696533e-01</leafValues></_>
        <_>
          <internalNodes>
            0 -1 6 -964522801 -784207018 1141113874 873644250 1539377484
            318845440 1682097868 2076566803</internalNodes>
          <leafValues>
            -4.6296581625938416e-01 4.1791540384292603e-01</leafValues></_>
        <_>
          <internalNodes>
            0 -1 2 -1635622738 -505294795 -268351023 1833472016
            -912160065 1662625794 -1853717017 -164503289</internalNodes>
          <leafValues>
            -4.7832071781158447e-01 4.3486022949218750e-01</leafValues></_>
        <_>
          <internalNodes>
            0 -1 35 1907963268 937230347 630718609 -645074880 739903764
            1919453204 -1018580183 1403233482</internalNodes>
          <leafValues>
            -5.2659589052200317e-01 4.1873556375503540e-01</leafValues></_>
        <_>
          <internalNodes>
            0 -1 111 -711331558 1454822528 620876032 -492846567
            -1862138838 210305040 1094912120 1460497945</internalNodes>
          <leafValues>
            -5.6665211915969849e-01 3.8566491007804871e-01</leafValues></_>
        <_>
          <internalNodes>
            0 -1 55 741037371 800010233 -26214540 -553902218 -2038440941
            -1358954505 1816035303 -189534909</internalNodes>
          <leafValues>
            -4.3374872207641602e-01 5.3785401582717896e-01</leafValues></_>
        <_>
          <internalNodes>
            0 -1 45 1671115422 -989609390 91295 646204496 -1593716590
            -2003632124 834675966 1212438677</internalNodes>
          <leafValues>
            -6.1065465211868286e-01 3.8063544034957886e-01</leafValues></_></weakClassifiers></_>
    <!-- stage 8 -->
    <_>
      <maxWeakCount>10</maxWeakCount>
      <stageThreshold>-9.2556309700012207e-01</stageThreshold>
      <weakClassifiers>
        <_>
          <internalNodes>
            0 -1 86 -2106048 984940209 -1091113198 1147330503 -948449404
            -1669988355 -848148604 1077272339</internalNodes>
          <leafValues>
            -3.8493722677230835e-01 5.2049911022186279e-01</leafValues></_>
        <_>
          <internalNodes>
            0 -1 57 -282390753 -1845476601 -1861793706 -536333537
            -658814833 1224868488 8520248 1591012100</internalNodes>
          <leafValues>
            -4.3427833914756775e-01 4.1117954254150391e-01</leafValues></_>
        <_>
          <internalNodes>
            0 -1 31 -962357298 -1048038008 -1073508340 21578188
            -905507942 1385570435 -1072872694 624230931</internalNodes>
          <leafValues>
            -4.9745607376098633e-01 3.6786058545112610e-01</leafValues></_>
        <_>
          <internalNodes>
            0 -1 78 1790605919 -287047874 1861398448 -215548368
            1862160348 -1621786628 1095626850 -622150500</internalNodes>
          <leafValues>
            -3.8147863745689392e-01 5.1687937974929810e-01</leafValues></_>
        <_>
          <internalNodes>
            0 -1 83 -1560806977 -307810305 -285478953 -123048026
            1157381703 -83921090 1860009696 -153233781</internalNodes>
          <leafValues>
            -4.0436768531799316e-01 5.4218417406082153e-01</leafValues></_>
        <_>
          <internalNodes>
            0 -1 23 -514920254 -987545600 -1055829940 -134113212 4739216
            1073872914 1082311366 1518387561</internalNodes>
          <leafValues>
            -5.7626247406005859e-01 3.7163871526718140e-01</leafValues></_>
        <_>
          <internalNodes>
            0 -1 100 1507408348 -1976291071 -486487920 56295445
            1073971819 209821705 9486471 869430221</internalNodes>
          <leafValues>
            -5.6354987621307373e-01 3.8360562920570374e-01</leafValues></_>
        <_>
          <internalNodes>
            0 -1 161 -778057984 70322195 -1056962175 71557141 403259689
            -662634496 -493245909 1217395427</internalNodes>
          <leafValues>
            -4.8337331414222717e-01 4.7730135917663574e-01</leafValues></_>
        <_>
          <internalNodes>
            0 -1 27 -1273048979 -1297451884 1878814180 -1472289716
            -1109178939 -1031897091 -562045512 -1147101390</internalNodes>
          <leafValues>
            -3.8892000913619995e-01 5.8959782123565674e-01</leafValues></_>
        <_>
          <internalNodes>
            0 -1 150 1902925567 -2099085713 1557904981 1806854011
            -1789561136 -1603552321 1014919505 -972948185</internalNodes>
          <leafValues>
            -4.1677063703536987e-01 5.4815834760665894e-01</leafValues></_></weakClassifiers></_>
    <!-- stage 9 -->
    <_>
      <maxWeakCount>8</maxWeakCount>
      <stageThreshold>-1.0759472846984863e+00</stageThreshold>
      <weakClassifiers>
        <_>
          <internalNodes>
            0 -1 72 605493557 688146801 -1810323740 169120172 1351762371
            -372594287 -123338636 538969808</internalNodes>
          <leafValues>
            -5.7386362552642822e-01 4.8237180709838867e-01</leafValues></_>
        <_>
          <internalNodes>
            0 -1 169 -1039184835 1677938708 274241434 -1403078649
            1745208069 -1647361535 -1173447424 -525608244</internalNodes>
          <leafValues>
            -4.2889508605003357e-01 5.0435912609100342e-01</leafValues></_>
        <_>
          <internalNodes>
            0 -1 17 607020574 -1609953024 -690097770 -870549118
            1217651539 604865259 -2113693680 -455030442</internalNodes>
          <leafValues>
            -5.5956131219863892e-01 3.7285745143890381e-01</leafValues></_>
        <_>
          <internalNodes>
            0 -1 157 -439136997 672190497 -1064619842 1749079312
            1217422444 1914110343 -665884523 74023025</internalNodes>
          <leafValues>
            -5.3308594226837158e-01 4.1010913252830505e-01</leafValues></_>
        <_>
          <internalNodes>
            0 -1 90 3872023 -856002570 -1613777049 -822296860
            -1342261773 -1616003458 -1125253567 -434066122</internalNodes>
          <leafValues>
            -4.4927367568016052e-01 5.0608289241790771e-01</leafValues></_>
        <_>
          <internalNodes>
            0 -1 62 1487229183 -1465369295 -554100257 19761888 669945533
            1610315508 207936997 -357258888</internalNodes>
          <leafValues>
            -4.5666772127151489e-01 5.2088737487792969e-01</leafValues></_>
        <_>
          <internalNodes>
            0 -1 146 -1053465263 286364947 -2130572211 306718084
            -1684415659 -125729909 1761896544 280637967</internalNodes>
          <leafValues>
            -5.3113842010498047e-01 4.6098878979682922e-01</leafValues></_>
        <_>
          <internalNodes>
            0 -1 46 52187415 -1920777975 1086906833 -1151726846
            -1165571300 998856858 -746542736 -1479636966</internalNodes>
          <leafValues>
            -4.9824860692024231e-01 5.1122033596038818e-01</leafValues></_></weakClassifiers></_>
    <!-- stage 10 -->
    <_>
      <maxWeakCount>9</maxWeakCount>
      <stageThreshold>-5.9893906116485596e-01</stageThreshold>
      <weakClassifiers>
        <_>
          <internalNodes>
            0 -1 61 553658678 839258692 -2080071633 185862400 1665422821
            940132384 589459916 742000856</internalNodes>
          <leafValues>
            -5.5076920986175537e-01 4.5411765575408936e-01</leafValues></_>
        <_>
          <internalNodes>
            0 -1 50 -738517248 454512799 878953217 1392805905
            -2113754486 705480713 -1465884020 1890698151</internalNodes>
          <leafValues>
            -4.8460263013839722e-01 3.8824814558029175e-01</leafValues></_>
        <_>
          <internalNodes>
            0 -1 32 -1898951297 1281940722 536412095 618446438
            1927368305 1017540597 805140118 -1212223546</internalNodes>
          <leafValues>
            -3.7772154808044434e-01 5.0007021427154541e-01</leafValues></_>
        <_>
          <internalNodes>
            0 -1 147 977542636 -1285984228 876840659 -624700915
            -1450415472 -1165360885 -1475569945 -115719952</internalNodes>
          <leafValues>
            -4.3641343712806702e-01 4.5330539345741272e-01</leafValues></_>
        <_>
          <internalNodes>
            0 -1 64 434111261 -862072616 272717959 -99956585 -2121205294
            -1181482614 -895294833 -1869042132</internalNodes>
          <leafValues>
            -4.9488919973373413e-01 4.4039398431777954e-01</leafValues></_>
        <_>
          <internalNodes>
            0 -1 160 545468474 -242149944 -1593760367 2007322626
            -654311294 -360701912 1380032559 1538099332</internalNodes>
          <leafValues>
            -5.4186469316482544e-01 4.2139649391174316e-01</leafValues></_>
        <_>
          <internalNodes>
            0 -1 181 213461821 -169095445 2147429609 1323499115
            964595312 -1653081219 -67111001 -17400075</internalNodes>
          <leafValues>
            -4.3438810110092163e-01 5.1669228076934814e-01</leafValues></_>
        <_>
          <internalNodes>
            0 -1 79 -526968025 -242352075 603981141 420348088
            -2141541593 269146368 227541128 2066514216</internalNodes>
          <leafValues>
            -5.8751004934310913e-01 4.0390816330909729e-01</leafValues></_>
        <_>
          <internalNodes>
            0 -1 85 724965983 1740590328 800857790 761163749 -679688992
            913612140 -1621604998 -888422408</internalNodes>
          <leafValues>
            -3.9351981878280640e-01 5.9616923332214355e-01</leafValues></_></weakClassifiers></_>
    <!-- stage 11 -->
    <_>
      <maxWeakCount>10</maxWeakCount>
      <stageThreshold>-6.7997300624847412e-01</stageThreshold>
      <weakClassifiers>
        <_>
          <internalNodes>
            0 -1 116 -1248958575 959239028 -2147302184 1136685632
            -1333637116 -381156992 262196 50334816</internalNodes>
          <leafValues>
            -5.7894736528396606e-01 4.4444444775581360e-01</leafValues></_>
        <_>
          <internalNodes>
            0 -1 135 -609619736 -781478695 1394507466 -40654727
            -1441465173 -515621044 -1500242486 -1081370481</internalNodes>
          <leafValues>
            -2.5831085443496704e-01 6.7534685134887695e-01</leafValues></_>
        <_>
          <internalNodes>
            0 -1 172 327488192 -772293052 1272987560 2042078536
            -1199972950 -1510730526 487891434 -1117805377</internalNodes>
          <leafValues>
            -3.1724503636360168e-01 5.7167184352874756e-01</leafValues></_>
        <_>
          <internalNodes>
            0 -1 140 240125970 -1092708072 310956753 1061423402 59902266
            -208728022 1331103236 -1099526752</internalNodes>
          <leafValues>
            -5.6518715620040894e-01 3.4096607565879822e-01</leafValues></_>
        <_>
          <internalNodes>
            0 -1 21 705769343 -1473708266 -1426145300 -1125171232
            2139027451 -235438082 2046688756 -185795074</internalNodes>
          <leafValues>
            -3.8873523473739624e-01 5.2247691154479980e-01</leafValues></_>
        <_>
          <internalNodes>
            0 -1 187 294553762 1349324800 353026216 1897480624
            -1342115445 163872 -310136357 319389738</internalNodes>
          <leafValues>
            -5.6406813859939575e-01 3.8243880867958069e-01</leafValues></_>
        <_>
          <internalNodes>
            0 -1 60 321689654 527631545 -281035043 -1612747662
            -686125832 -1628553222 -1287373121 -1020584764</internalNodes>
          <leafValues>
            -4.3328413367271423e-01 5.3249424695968628e-01</leafValues></_>
        <_>
          <internalNodes>
            0 -1 176 1135242 151060484 268517504 -641120956 -1744561528
            134676680 -1728022325 1528996546</internalNodes>
          <leafValues>
            -4.8697337508201599e-01 4.7560355067253113e-01</leafValues></_>
        <_>
          <internalNodes>
            0 -1 5 1620297381 1611677762 328306762 -460804704 1084323967
            2097481776 1779942229 -960047537</internalNodes>
          <leafValues>
            -5.1787978410720825e-01 4.8463508486747742e-01</leafValues></_>
        <_>
          <internalNodes>
            0 -1 158 -109971244 1371330633 929081965 -1074160145
            -542268674 -1619747018 -612701461 -1173670246</internalNodes>
          <leafValues>
            -3.4375682473182678e-01 7.0767605304718018e-01</leafValues></_></weakClassifiers></_>
    <!-- stage 12 -->
    <_>
      <maxWeakCount>11</maxWeakCount>
      <stageThreshold>-9.9986785650253296e-01</stageThreshold>
      <weakClassifiers>
        <_>
          <internalNodes>
            0 -1 108 615317641 -1857910768 638996663 722604052
            -1308097535 21561492 562956304 186778628</internalNodes>
          <leafValues>
            -6.3218390941619873e-01 4.2195668816566467e-01</leafValues></_>
        <_>
          <internalNodes>
            0 -1 141 -744295206 -47037080 -1363965855 -674652895
            -1692948598 -1877042321 -1917526021 -75265893</internalNodes>
          <leafValues>
            -2.4831324815750122e-01 7.3668473958969116e-01</leafValues></_>
        <_>
          <internalNodes>
            0 -1 174 -856748287 1304182312 -1073987920 -2005913930
            2013206356 1878490997 -155714643 -494146250</internalNodes>
          <leafValues>
            -3.8206803798675537e-01 4.7672915458679199e-01</leafValues></_>
        <_>
          <internalNodes>
            0 -1 73 649018047 2071625723 -269045965 -525947081
            1862231821 -311525546 -279158597 -364978246</internalNodes>
          <leafValues>
            -3.7783336639404297e-01 5.7030707597732544e-01</leafValues></_>
        <_>
          <internalNodes>
            0 -1 107 611078693 -1541758933 1141899418 -1701527043
            -943308720 -1158512171 -257262848 -836126830</internalNodes>
          <leafValues>
            -4.5844957232475281e-01 4.5719841122627258e-01</leafValues></_>
        <_>
          <internalNodes>
            0 -1 26 1148322397 360857669 1888524248 689976960 54528522
            1942950018 -804490532 469390355</internalNodes>
          <leafValues>
            -5.6169873476028442e-01 3.8589373230934143e-01</leafValues></_>
        <_>
          <internalNodes>
            0 -1 186 407044586 1631682562 1350780930 -1784970936
            -1610573030 318964874 1233625225 2013526519</internalNodes>
          <leafValues>
            -5.0248539447784424e-01 4.2849248647689819e-01</leafValues></_>
        <_>
          <internalNodes>
            0 -1 109 -9782018 1545244845 659184832 -572453215
            -1918849360 -203379380 1404001482 -545026005</internalNodes>
          <leafValues>
            -3.2390177249908447e-01 6.9234693050384521e-01</leafValues></_>
        <_>
          <internalNodes>
            0 -1 18 -767038589 813891855 49166 -656123627 1119064248
            -1535033336 -475854526 1209000655</internalNodes>
          <leafValues>
            -4.5191425085067749e-01 5.3249841928482056e-01</leafValues></_>
        <_>
          <internalNodes>
            0 -1 59 -68429497 -585288671 1760098810 -1405815427
            -1258756440 576338638 1684189814 -80283922</internalNodes>
          <leafValues>
            -3.3797767758369446e-01 6.6747426986694336e-01</leafValues></_>
        <_>
          <internalNodes>
            0 -1 154 1972785384 -260898408 270565409 -1282080660
            -1811881310 -1163837438 671563993 1397796969</internalNodes>
          <leafValues>
            -5.5283832550048828e-01 4.3304237723350525e-01</leafValues></_></weakClassifiers></_>
    <!-- stage 13 -->
    <_>
      <maxWeakCount>8</maxWeakCount>
      <stageThreshold>-7.5590223073959351e-01</stageThreshold>
      <weakClassifiers>
        <_>
          <internalNodes>
            0 -1 127 -769621824 -660198328 2066116324 1396392551
            -1425896566 70268620 -1974826098 -1834342964</internalNodes>
          <leafValues>
            -2.1715818345546722e-01 6.5807962417602539e-01</leafValues></_>
        <_>
          <internalNodes>
            0 -1 129 -106323816 -210561463 2048084081 -775160064
            -1500804950 -1945040794 -1552881954 -204798837</internalNodes>
          <leafValues>
            -2.7019366621971130e-01 7.5803446769714355e-01</leafValues></_>
        <_>
          <internalNodes>
            0 -1 159 -208734022 -9672524 -1501008264 -784992684
            -1449210740 36853764 -1239694642 -611642726</internalNodes>
          <leafValues>
            -2.8228610754013062e-01 7.4427664279937744e-01</leafValues></_>
        <_>
          <internalNodes>
            0 -1 125 -91712302 -123751520 -1882183328 -547891246
            -434330470 3503976 -1358781031 -607137062</internalNodes>
          <leafValues>
            -3.4008336067199707e-01 7.2073811292648315e-01</leafValues></_>
        <_>
          <internalNodes>
            0 -1 54 -474954084 1573187500 1623076316 -616212492
            -1159811342 -1300826388 -2110980407 -1760849525</internalNodes>
          <leafValues>
            -3.3983051776885986e-01 6.7112106084823608e-01</leafValues></_>
        <_>
          <internalNodes>
            0 -1 36 -251624792 -638636514 760119246 -1110847480
            -1651345497 1906211169 -562137170 -2084863528</internalNodes>
          <leafValues>
            -4.0243631601333618e-01 6.0172092914581299e-01</leafValues></_>
        <_>
          <internalNodes>
            0 -1 134 -652289858 -68203748 1867742993 -541774986
            -1092452102 -1110034372 1139862971 -888160085</internalNodes>
          <leafValues>
            -3.1461429595947266e-01 7.8085339069366455e-01</leafValues></_>
        <_>
          <internalNodes>
            0 -1 151 -696264949 563428863 -285225123 779935668
            -1084375773 -1208126092 -142754036 546175515</internalNodes>
          <leafValues>
            -4.6241906285285950e-01 5.3546243906021118e-01</leafValues></_></weakClassifiers></_>
    <!-- stage 14 -->
    <_>
      <maxWeakCount>10</maxWeakCount>
      <stageThreshold>-6.4281243085861206e-01</stageThreshold>
      <weakClassifiers>
        <_>
          <internalNodes>
            0 -1 11 -22237490 477511848 -20636 217754856 1817665363
            1315274613 -236436106 1680326726</internalNodes>
          <leafValues>
            -4.2355889081954956e-01 4.7377187013626099e-01</leafValues></_>
        <_>
          <internalNodes>
            0 -1 144 -984628924 2524609 469811333 1266737227 1082245252
            990691505 1930649600 547595593</internalNodes>
          <leafValues>
            -5.4449146986007690e-01 3.1527787446975708e-01</leafValues></_>
        <_>
          <internalNodes>
            0 -1 115 796075799 -286425221 532115045 -323158399 322391629
            2144761878 -1192488988 -871997025</internalNodes>
          <leafValues>
            -3.9133086800575256e-01 4.7000828385353088e-01</leafValues></_>
        <_>
          <internalNodes>
            0 -1 52 1084720849 2075074222 -327516561 -209113162
            2130585112 2096955257 -2008773601 -1390439</internalNodes>
          <leafValues>
            -3.8765993714332581e-01 4.9575337767601013e-01</leafValues></_>
        <_>
          <internalNodes>
            0 -1 123 -499300687 -1818759 -71356618 2117629368 687795966
            -1619116041 796680188 -1154228753</internalNodes>
          <leafValues>
            -4.0605568885803223e-01 5.1809477806091309e-01</leafValues></_>
        <_>
          <internalNodes>
            0 -1 29 -5703715 2095533182 -1147184440 -572916625
            -1086355497 621608917 -135689015 1378863007</internalNodes>
          <leafValues>
            -3.8624954223632812e-01 5.1220405101776123e-01</leafValues></_>
        <_>
          <internalNodes>
            0 -1 82 812262939 183910294 1862155257 -923222724 -411066713
            1637810012 373026302 -1462202659</internalNodes>
          <leafValues>
            -4.4961532950401306e-01 4.6101564168930054e-01</leafValues></_>
        <_>
          <internalNodes>
            0 -1 67 -1750303055 -558479123 -1091371009 436248172
            -1100528163 -756277906 611364863 -565192612</internalNodes>
          <leafValues>
            -3.4351035952568054e-01 6.0218399763107300e-01</leafValues></_>
        <_>
          <internalNodes>
            0 -1 152 -665638697 -73646786 1582792323 2093039329
            -160072608 -840413456 -2021660840 -435545003</internalNodes>
          <leafValues>
            -3.8650447130203247e-01 5.5704265832901001e-01</leafValues></_>
        <_>
          <internalNodes>
            0 -1 179 -1861210388 146866373 -1610002088 12637906
            271786160 -2134269055 1421345417 -433368704</internalNodes>
          <leafValues>
            -4.6280285716056824e-01 4.6447065472602844e-01</leafValues></_></weakClassifiers></_>
    <!-- stage 15 -->
    <_>
      <maxWeakCount>10</maxWeakCount>
      <stageThreshold>-8.9265501499176025e-01</stageThreshold>
      <weakClassifiers>
        <_>
          <internalNodes>
            0 -1 15 -834736426 -822231178 645427038 -1343345738
            1869890644 1853718357 1917099571 216364884</internalNodes>
          <leafValues>
            -3.3606556057929993e-01 5.0719422101974487e-01</leafValues></_>
        <_>
          <internalNodes>
            0 -1 167 -582228703 25182529 -1340925939 536896259
            -963727080 1345034914 1646621408 697821510</internalNodes>
          <leafValues>
            -4.2011854052543640e-01 3.8331994414329529e-01</leafValues></_>
        <_>
          <internalNodes>
            0 -1 81 -959295039 -2133747048 -770699247 -2130671594
            -511571386 -1744764283 -2046729120 -796473759</internalNodes>
          <leafValues>
            -4.3428164720535278e-01 3.8658544421195984e-01</leafValues></_>
        <_>
          <internalNodes>
            0 -1 38 1725809375 1540288832 -1766319445 1810317105
            -923018098 2027934824 -559281409 -1817975098</internalNodes>
          <leafValues>
            -2.8627663850784302e-01 6.2148177623748779e-01</leafValues></_>
        <_>
          <internalNodes>
            0 -1 177 1232936215 1964838758 2097151963 -1300742478
            1799274269 492529534 -2049106543 -455616709</internalNodes>
          <leafValues>
            -3.2574027776718140e-01 6.0712254047393799e-01</leafValues></_>
        <_>
          <internalNodes>
            0 -1 113 -419100752 -1999588590 564373825 -1942421440
            67258923 -620052480 646188969 1871917232</internalNodes>
          <leafValues>
            -5.2137553691864014e-01 3.7865677475929260e-01</leafValues></_>
        <_>
          <internalNodes>
            0 -1 119 1690527989 -1684335609 1225265161 1194468358
            -490684257 -91389430 1107830814 -622404864</internalNodes>
          <leafValues>
            -4.5313808321952820e-01 4.9722772836685181e-01</leafValues></_>
        <_>
          <internalNodes>
            0 -1 71 -1659001314 1297188965 4176 3343619 402927884
            1024073928 1254721702 1149023522</internalNodes>
          <leafValues>
            -5.9504508972167969e-01 3.8220483064651489e-01</leafValues></_>
        <_>
          <internalNodes>
            0 -1 94 -1953772748 -1809315259 537493529 764616705
            -1556037488 -937918260 1116215487 1706046857</internalNodes>
          <leafValues>
            -6.3030290603637695e-01 3.1738314032554626e-01</leafValues></_>
        <_>
          <internalNodes>
            0 -1 95 -16929141 489406044 -1111709967 -1344422531
            2111533102 -570490914 225813885 -552435958</internalNodes>
          <leafValues>
            -3.8472732901573181e-01 5.7973915338516235e-01</leafValues></_></weakClassifiers></_>
    <!-- stage 16 -->
    <_>
      <maxWeakCount>12</maxWeakCount>
      <stageThreshold>-1.0864704847335815e+00</stageThreshold>
      <weakClassifiers>
        <_>
          <internalNodes>
            0 -1 25 -913956346 -1883242480 360747080 -1467445030
            35651588 859832449 1124080432 1098362882</internalNodes>
          <leafValues>
            -5.3103446960449219e-01 4.2290076613426208e-01</leafValues></_>
        <_>
          <internalNodes>
            0 -1 112 -179967608 63169072 -1861943024 -1799110510
            269550788 146833540 1130840065 696103519</internalNodes>
          <leafValues>
            -5.1446068286895752e-01 3.0715885758399963e-01</leafValues></_>
        <_>
          <internalNodes>
            0 -1 53 -1152826145 -1633015038 1408514227 1302444048
            -890245432 -844714035 -440577179 -170666514</internalNodes>
          <leafValues>
            -2.8621184825897217e-01 5.8894282579421997e-01</leafValues></_>
        <_>
          <internalNodes>
            0 -1 122 272765856 -620494831 318816594 -1002028642
            -1031208290 -1945718733 -2038361976 -897592920</internalNodes>
          <leafValues>
            -4.2836570739746094e-01 4.1034919023513794e-01</leafValues></_>
        <_>
          <internalNodes>
            0 -1 58 -770015105 -938368668 541331701 593961489 210952
            -1308571616 -1981245235 1832000186</internalNodes>
          <leafValues>
            -5.0558555126190186e-01 3.7654885649681091e-01</leafValues></_>
        <_>
          <internalNodes>
            0 -1 97 1520571842 337648553 2128803176 1428968609 879280616
            -2059180659 740752365 -1069042366</internalNodes>
          <leafValues>
            -4.1622003912925720e-01 4.8618859052658081e-01</leafValues></_>
        <_>
          <internalNodes>
            0 -1 4 1288418735 1679458758 437326102 -2067430834
            1346503177 -1369436150 1476923458 -1236933936</internalNodes>
          <leafValues>
            -5.2762150764465332e-01 3.8187366724014282e-01</leafValues></_>
        <_>
          <internalNodes>
            0 -1 20 -2141612018 658768001 -2146545564 -794193786
            2015543500 740295680 -1585411865 78860444</internalNodes>
          <leafValues>
            -6.7607814073562622e-01 2.8200694918632507e-01</leafValues></_>
        <_>
          <internalNodes>
            0 -1 170 1324732163 247199551 -1052938 683830330 -277478032
            -270599372 -4721030 -377487601</internalNodes>
          <leafValues>
            -4.5648580789566040e-01 4.6318569779396057e-01</leafValues></_>
        <_>
          <internalNodes>
            0 -1 182 1165945108 1494335656 822170375 2098016402
            1370091798 35880960 619217101 32728018</internalNodes>
          <leafValues>
            -5.4888027906417847e-01 3.8647472858428955e-01</leafValues></_>
        <_>
          <internalNodes>
            0 -1 68 -716465517 -2004440338 1819999419 823402197
            -337674267 -606634666 651459470 -824987757</internalNodes>
          <leafValues>
            -3.7998455762863159e-01 6.1457109451293945e-01</leafValues></_>
        <_>
          <internalNodes>
            0 -1 114 -707129218 -1146182865 524492462 1607151053
            -277164136 -980523050 -1090398391 1210389504</internalNodes>
          <leafValues>
            -4.4446179270744324e-01 5.1514875888824463e-01</leafValues></_></weakClassifiers></_>
    <!-- stage 17 -->
    <_>
      <maxWeakCount>13</maxWeakCount>
      <stageThreshold>-1.3268522024154663e+00</stageThreshold>
      <weakClassifiers>
        <_>
          <internalNodes>
            0 -1 87 -656032 795095030 -1312297168 1650970610 -1077973016
            473784189 -1074536702 1079368034</internalNodes>
          <leafValues>
            -3.4883719682693481e-01 4.7008547186851501e-01</leafValues></_>
        <_>
          <internalNodes>
            0 -1 142 -620299574 -1148822992 1757339857 1671547614
            -1507094790 -1749574468 -178353541 -441719317</internalNodes>
          <leafValues>
            -2.4287553131580353e-01 6.1488187313079834e-01</leafValues></_>
        <_>
          <internalNodes>
            0 -1 168 1421522106 1484023457 257225705 -779809511
            -61063510 326384846 -181625454 -99903602</internalNodes>
          <leafValues>
            -2.9842534661293030e-01 5.6532537937164307e-01</leafValues></_>
        <_>
          <internalNodes>
            0 -1 138 1404016058 -186832888 1072667692 -84593935
            513446536 -317358732 -2127095910 -82128947</internalNodes>
          <leafValues>
            -3.1398162245750427e-01 5.7694131135940552e-01</leafValues></_>
        <_>
          <internalNodes>
            0 -1 106 -287193130 2113718856 -1669371383 -1068962011
            -1244270376 -2084733115 -1385392765 -1663114546</internalNodes>
          <leafValues>
            -3.6631584167480469e-01 5.2796190977096558e-01</leafValues></_>
        <_>
          <internalNodes>
            0 -1 175 -776977772 1609428245 -402758924 -110349163
            416675020 -2021780884 -1094931526 -70289782</internalNodes>
          <leafValues>
            -3.2495877146720886e-01 5.8759462833404541e-01</leafValues></_>
        <_>
          <internalNodes>
            0 -1 43 -972580023 -1542188520 269500821 23368193 1074273000
            671092792 306894796 1170470447</internalNodes>
          <leafValues>
            -4.4289502501487732e-01 4.4677969813346863e-01</leafValues></_>
        <_>
          <internalNodes>
            0 -1 118 -1097333444 -511229644 1082167425 836338769
            -2011067728 -240123780 -1410692933 1568172753</internalNodes>
          <leafValues>
            -5.8765953779220581e-01 3.5342723131179810e-01</leafValues></_>
        <_>
          <internalNodes>
            0 -1 183 -260591224 1687957210 -353591368 -872991772
            -1210853670 -1602273794 1719320249 -641878056</internalNodes>
          <leafValues>
            -3.7750706076622009e-01 5.7962787151336670e-01</leafValues></_>
        <_>
          <internalNodes>
            0 -1 33 -1893011793 -407064793 687668862 -1213267986
            1441756627 -159991946 -541455 -649087753</internalNodes>
          <leafValues>
            -3.5459750890731812e-01 6.0423088073730469e-01</leafValues></_>
        <_>
          <internalNodes>
            0 -1 152 -1890368830 -1613030112 1790856923 -906416415
            1845263914 -172667038 -622382343 -1968077162</internalNodes>
          <leafValues>
            -3.6420148611068726e-01 5.5845564603805542e-01</leafValues></_>
        <_>
          <internalNodes>
            0 -1 74 1655433397 2075983115 -1933821963 1978340386
            -1346995115 -5341187 1294734686 -42464659</internalNodes>
          <leafValues>
            -4.5438933372497559e-01 4.8173454403877258e-01</leafValues></_>
        <_>
          <internalNodes>
            0 -1 155 -715453673 -1440524279 -1073179762 1417920786
            1241559296 -2046058479 1078794757 -102471626</internalNodes>
          <leafValues>
            -4.7494274377822876e-01 4.6358308196067810e-01</leafValues></_></weakClassifiers></_>
    <!-- stage 18 -->
    <_>
      <maxWeakCount>11</maxWeakCount>
      <stageThreshold>-8.5681247711181641e-01</stageThreshold>
      <weakClassifiers>
        <_>
          <internalNodes>
            0 -1 105 774783536 388990982 1844882455 -415412900
            1324089508 -1153745052 1342183541 2136362833</internalNodes>
          <leafValues>
            -3.5362997651100159e-01 4.6973571181297302e-01</leafValues></_>
        <_>
          <internalNodes>
            0 -1 102 -477473564 -537326088 447370564 -114223952
            -559901105 -913605966 -753746311 -1079277282</internalNodes>
          <leafValues>
            -2.5329172611236572e-01 5.9544402360916138e-01</leafValues></_>
        <_>
          <internalNodes>
            0 -1 130 -257389944 -745963288 1154282741 -1789581992
            -882971624 514506160 913634191 -1498958674</internalNodes>
          <leafValues>
            -3.4900104999542236e-01 4.6730601787567139e-01</leafValues></_>
        <_>
          <internalNodes>
            0 -1 104 1486808152 553680960 -1809507555 354387202
            -937361336 -134167446 -880793600 824674491</internalNodes>
          <leafValues>
            -5.2840375900268555e-01 3.5022935271263123e-01</leafValues></_>
        <_>
          <internalNodes>
            0 -1 139 -894153520 -718966072 1060975586 -609910992
            534815904 -885965725 725149242 -70901510</internalNodes>
          <leafValues>
            -3.8607311248779297e-01 4.9587202072143555e-01</leafValues></_>
        <_>
          <internalNodes>
            0 -1 75 -677235311 -542146820 -16855326 823107555
            -2014456580 -1897963586 1342006480 -1647932137</internalNodes>
          <leafValues>
            -3.6938604712486267e-01 5.3941744565963745e-01</leafValues></_>
        <_>
          <internalNodes>
            0 -1 166 666894896 -191526848 1368883475 -647692129
            -1811890038 -2121660408 -637490552 1306624075</internalNodes>
          <leafValues>
            -4.6706074476242065e-01 4.3520653247833252e-01</leafValues></_>
        <_>
          <internalNodes>
            0 -1 165 -723287866 -574947368 518671948 -28037128 508227198
            -1849869346 -1535314994 -733765750</internalNodes>
          <leafValues>
            -3.6052235960960388e-01 5.9244632720947266e-01</leafValues></_>
        <_>
          <internalNodes>
            0 -1 185 497625942 -188761091 1039740813 -1708132571
            662527960 -10085125 -1385169410 -985735717</internalNodes>
          <leafValues>
            -4.2030394077301025e-01 5.0930213928222656e-01</leafValues></_>
        <_>
          <internalNodes>
            0 -1 120 -696675110 -537224102 -1233533315 -78699556
            -239732752 -227890712 1605694683 -1683237669</internalNodes>
          <leafValues>
            -2.9980635643005371e-01 7.3356866836547852e-01</leafValues></_>
        <_>
          <internalNodes>
            0 -1 171 -250862352 51708008 1359218721 2135262257
            -226458386 -1610473079 1268126024 1999608052</internalNodes>
          <leafValues>
            -5.2233523130416870e-01 4.3873304128646851e-01</leafValues></_></weakClassifiers></_>
    <!-- stage 19 -->
    <_>
      <maxWeakCount>9</maxWeakCount>
      <stageThreshold>-5.0727486610412598e-01</stageThreshold>
      <weakClassifiers>
        <_>
          <internalNodes>
            0 -1 110 44911891 246955950 -553865546 -565773376
            -1244707321 -1359528075 1869358880 -1067125532</internalNodes>
          <leafValues>
            -3.0508473515510559e-01 5.7425743341445923e-01</leafValues></_>
        <_>
          <internalNodes>
            0 -1 126 -1789982959 -1120306241 -9585667 -1618035212
            -419646017 -1493239945 -1350764580 -1339758640</internalNodes>
          <leafValues>
            -3.8699042797088623e-01 4.9235185980796814e-01</leafValues></_>
        <_>
          <internalNodes>
            0 -1 98 573519947 195753717 -270537361 -2132083980 -9081051
            -1216481414 1719064433 -354983947</internalNodes>
          <leafValues>
            -4.3111672997474670e-01 4.5079803466796875e-01</leafValues></_>
        <_>
          <internalNodes>
            0 -1 37 -1842383153 -1917845761 -1342374537 -285409814
            2113369373 2088730485 -973617596 -2066875323</internalNodes>
          <leafValues>
            -4.4416770339012146e-01 4.7200876474380493e-01</leafValues></_>
        <_>
          <internalNodes>
            0 -1 49 806924637 -1199909165 -1962625686 -2115215155
            -1037239969 -1717409024 -1702329464 -2064371648</internalNodes>
          <leafValues>
            -4.7275841236114502e-01 4.4130027294158936e-01</leafValues></_>
        <_>
          <internalNodes>
            0 -1 178 42404868 1973016597 -1584864346 -1601519482
            1291404070 1259261971 1649631553 -893354130</internalNodes>
          <leafValues>
            -5.8061188459396362e-01 3.8835340738296509e-01</leafValues></_>
        <_>
          <internalNodes>
            0 -1 69 731325555 971141791 1352018267 -1631548848 835390626
            -1882903474 1373868615 -28255419</internalNodes>
          <leafValues>
            -4.8763611912727356e-01 4.8743316531181335e-01</leafValues></_>
        <_>
          <internalNodes>
            0 -1 8 -66667422 -245712286 1611039129 -534731430 444735624
            1207959826 673383264 1552401428</internalNodes>
          <leafValues>
            -5.8252280950546265e-01 4.4184952974319458e-01</leafValues></_>
        <_>
          <internalNodes>
            0 -1 91 -6045341 1937203070 -1052763 1068832616 351239503
            -1410204676 -1628484788 -1948148835</internalNodes>
          <leafValues>
            -4.3205451965332031e-01 5.7364457845687866e-01</leafValues></_></weakClassifiers></_></stages>
  <features>
    <_>
      <rect>
        0 0 15 11</rect></_>
    <_>
      <rect>
        0 0 21 10</rect></_>
    <_>
      <rect>
        0 0 24 4</rect></_>
    <_>
      <rect>
        0 5 17 5</rect></_>
    <_>
      <rect>
        0 6 10 4</rect></_>
    <_>
      <rect>
        0 13 8 4</rect></_>
    <_>
      <rect>
        0 14 15 8</rect></_>
    <_>
      <rect>
        0 15 14 6</rect></_>
    <_>
      <rect>
        1 1 12 9</rect></_>
    <_>
      <rect>
        1 5 17 8</rect></_>
    <_>
      <rect>
        1 8 11 5</rect></_>
    <_>
      <rect>
        1 8 13 7</rect></_>
    <_>
      <rect>
        1 9 13 9</rect></_>
    <_>
      <rect>
        1 12 13 5</rect></_>
    <_>
      <rect>
        1 14 13 6</rect></_>
    <_>
      <rect>
        1 16 13 8</rect></_>
    <_>
      <rect>
        2 0 26 8</rect></_>
    <_>
      <rect>
        2 2 7 3</rect></_>
    <_>
      <rect>
        2 4 26 12</rect></_>
    <_>
      <rect>
        2 20 20 6</rect></_>
    <_>
      <rect>
        2 24 26 4</rect></_>
    <_>
      <rect>
        3 0 3 3</rect></_>
    <_>
      <rect>
        3 1 24 13</rect></_>
    <_>
      <rect>
        3 13 22 9</rect></_>
    <_>
      <rect>
        3 31 1 1</rect></_>
    <_>
      <rect>
        4 8 9 2</rect></_>
    <_>
      <rect>
        4 22 19 6</rect></_>
    <_>
      <rect>
        4 34 4 2</rect></_>
    <_>
      <rect>
        5 3 25 10</rect></_>
    <_>
      <rect>
        5 6 25 11</rect></_>
    <_>
      <rect>
        5 15 25 8</rect></_>
    <_>
      <rect>
        6 1 12 8</rect></_>
    <_>
      <rect>
        6 26 7 4</rect></_>
    <_>
      <rect>
        7 10 5 3</rect></_>
    <_>
      <rect>
        8 14 22 8</rect></_>
    <_>
      <rect>
        9 13 22 6</rect></_>
    <_>
      <rect>
        9 37 1 1</rect></_>
    <_>
      <rect>
        11 1 10 3</rect></_>
    <_>
      <rect>
        11 22 16 5</rect></_>
    <_>
      <rect>
        12 16 18 7</rect></_>
    <_>
      <rect>
        13 12 14 5</rect></_>
    <_>
      <rect>
        13 23 13 5</rect></_>
    <_>
      <rect>
        15 13 15 7</rect></_>
    <_>
      <rect>
        16 17 13 4</rect></_>
    <_>
      <rect>
        17 11 12 6</rect></_>
    <_>
      <rect>
        17 13 12 5</rect></_>
    <_>
      <rect>
        18 8 16 5</rect></_>
    <_>
      <rect>
        18 27 1 1</rect></_>
    <_>
      <rect>
        19 1 17 8</rect></_>
    <_>
      <rect>
        19 30 2 2</rect></_>
    <_>
      <rect>
        20 0 20 6</rect></_>
    <_>
      <rect>
        20 8 10 6</rect></_>
    <_>
      <rect>
        20 14 14 7</rect></_>
    <_>
      <rect>
        20 26 11 4</rect></_>
    <_>
      <rect>
        21 37 1 1</rect></_>
    <_>
      <rect>
        22 5 7 3</rect></_>
    <_>
      <rect>
        22 10 15 8</rect></_>
    <_>
      <rect>
        22 11 8 3</rect></_>
    <_>
      <rect>
        22 11 13 5</rect></_>
    <_>
      <rect>
        22 23 12 5</rect></_>
    <_>
      <rect>
        22 27 2 1</rect></_>
    <_>
      <rect>
        23 11 7 6</rect></_>
    <_>
      <rect>
        23 25 6 3</rect></_>
    <_>
      <rect>
        23 32 1 1</rect></_>
    <_>
      <rect>
        24 3 3 4</rect></_>
    <_>
      <rect>
        24 10 11 5</rect></_>
    <_>
      <rect>
        24 12 7 1</rect></_>
    <_>
      <rect>
        24 25 5 2</rect></_>
    <_>
      <rect>
        24 28 5 1</rect></_>
    <_>
      <rect>
        25 9 3 2</rect></_>
    <_>
      <rect>
        26 3 1 1</rect></_>
    <_>
      <rect>
        26 4 17 7</rect></_>
    <_>
      <rect>
        26 9 6 4</rect></_>
    <_>
      <rect>
        26 11 13 4</rect></_>
    <_>
      <rect>
        26 12 11 8</rect></_>
    <_>
      <rect>
        27 1 10 4</rect></_>
    <_>
      <rect>
        27 6 7 7</rect></_>
    <_>
      <rect>
        27 6 10 9</rect></_>
    <_>
      <rect>
        27 9 11 5</rect></_>
    <_>
      <rect>
        27 11 11 7</rect></_>
    <_>
      <rect>
        27 13 12 5</rect></_>
    <_>
      <rect>
        27 28 10 3</rect></_>
    <_>
      <rect>
        28 2 2 2</rect></_>
    <_>
      <rect>
        28 8 8 3</rect></_>
    <_>
      <rect>
        28 12 9 4</rect></_>
    <_>
      <rect>
        28 14 5 3</rect></_>
    <_>
      <rect>
        29 2 16 8</rect></_>
    <_>
      <rect>
        29 3 17 8</rect></_>
    <_>
      <rect>
        29 16 9 4</rect></_>
    <_>
      <rect>
        29 33 1 1</rect></_>
    <_>
      <rect>
        30 7 4 2</rect></_>
    <_>
      <rect>
        30 14 6 3</rect></_>
    <_>
      <rect>
        31 0 16 11</rect></_>
    <_>
      <rect>
        31 6 5 5</rect></_>
    <_>
      <rect>
        31 16 5 4</rect></_>
    <_>
      <rect>
        31 22 10 4</rect></_>
    <_>
      <rect>
        31 25 2 1</rect></_>
    <_>
      <rect>
        31 27 3 1</rect></_>
    <_>
      <rect>
        32 3 5 1</rect></_>
    <_>
      <rect>
        32 4 15 10</rect></_>
    <_>
      <rect>
        32 14 5 4</rect></_>
    <_>
      <rect>
        32 14 7 3</rect></_>
    <_>
      <rect>
        32 25 1 1</rect></_>
    <_>
      <rect>
        33 13 3 4</rect></_>
    <_>
      <rect>
        33 16 5 2</rect></_>
    <_>
      <rect>
        33 17 8 5</rect></_>
    <_>
      <rect>
        33 25 3 1</rect></_>
    <_>
      <rect>
        34 9 6 2</rect></_>
    <_>
      <rect>
        34 10 7 7</rect></_>
    <_>
      <rect>
        34 28 1 1</rect></_>
    <_>
      <rect>
        35 6 4 2</rect></_>
    <_>
      <rect>
        35 6 14 11</rect></_>
    <_>
      <rect>
        35 10 15 10</rect></_>
    <_>
      <rect>
        35 14 8 5</rect></_>
    <_>
      <rect>
        35 26 2 1</rect></_>
    <_>
      <rect>
        36 7 5 2</rect></_>
    <_>
      <rect>
        36 7 5 11</rect></_>
    <_>
      <rect>
        36 16 10 4</rect></_>
    <_>
      <rect>
        36 17 3 3</rect></_>
    <_>
      <rect>
        36 17 9 5</rect></_>
    <_>
      <rect>
        37 32 1 1</rect></_>
    <_>
      <rect>
        38 8 4 2</rect></_>
    <_>
      <rect>
        38 14 6 3</rect></_>
    <_>
      <rect>
        38 16 7 4</rect></_>
    <_>
      <rect>
        38 16 14 8</rect></_>
    <_>
      <rect>
        38 31 1 1</rect></_>
    <_>
      <rect>
        39 11 2 3</rect></_>
    <_>
      <rect>
        39 18 1 1</rect></_>
    <_>
      <rect>
        39 21 2 1</rect></_>
    <_>
      <rect>
        40 33 1 1</rect></_>
    <_>
      <rect>
        40 36 1 1</rect></_>
    <_>
      <rect>
        41 7 1 1</rect></_>
    <_>
      <rect>
        41 15 3 2</rect></_>
    <_>
      <rect>
        41 19 13 7</rect></_>
    <_>
      <rect>
        41 20 1 1</rect></_>
    <_>
      <rect>
        41 25 1 1</rect></_>
    <_>
      <rect>
        41 31 1 1</rect></_>
    <_>
      <rect>
        41 36 1 1</rect></_>
    <_>
      <rect>
        42 32 1 1</rect></_>
    <_>
      <rect>
        43 22 1 1</rect></_>
    <_>
      <rect>
        43 22 5 3</rect></_>
    <_>
      <rect>
        43 26 1 1</rect></_>
    <_>
      <rect>
        43 32 1 1</rect></_>
    <_>
      <rect>
        43 33 1 1</rect></_>
    <_>
      <rect>
        44 18 12 7</rect></_>
    <_>
      <rect>
        44 36 1 1</rect></_>
    <_>
      <rect>
        45 2 10 4</rect></_>
    <_>
      <rect>
        45 25 2 2</rect></_>
    <_>
      <rect>
        45 26 2 1</rect></_>
    <_>
      <rect>
        46 8 11 6</rect></_>
    <_>
      <rect>
        46 22 6 2</rect></_>
    <_>
      <rect>
        47 3 11 7</rect></_>
    <_>
      <rect>
        47 28 3 1</rect></_>
    <_>
      <rect>
        48 29 1 1</rect></_>
    <_>
      <rect>
        49 29 2 1</rect></_>
    <_>
      <rect>
        50 4 5 3</rect></_>
    <_>
      <rect>
        50 6 9 5</rect></_>
    <_>
      <rect>
        50 9 8 4</rect></_>
    <_>
      <rect>
        50 23 1 1</rect></_>
    <_>
      <rect>
        50 27 1 1</rect></_>
    <_>
      <rect>
        51 11 1 1</rect></_>
    <_>
      <rect>
        52 8 8 7</rect></_>
    <_>
      <rect>
        52 26 1 1</rect></_>
    <_>
      <rect>
        53 9 8 8</rect></_>
    <_>
      <rect>
        53 17 9 5</rect></_>
    <_>
      <rect>
        53 35 1 1</rect></_>
    <_>
      <rect>
        54 20 1 1</rect></_>
    <_>
      <rect>
        55 11 7 8</rect></_>
    <_>
      <rect>
        55 27 1 1</rect></_>
    <_>
      <rect>
        56 7 8 4</rect></_>
    <_>
      <rect>
        56 10 8 4</rect></_>
    <_>
      <rect>
        56 15 1 1</rect></_>
    <_>
      <rect>
        56 16 1 1</rect></_>
    <_>
      <rect>
        57 6 7 4</rect></_>
    <_>
      <rect>
        59 10 7 6</rect></_>
    <_>
      <rect>
        59 15 1 1</rect></_>
    <_>
      <rect>
        62 14 1 1</rect></_>
    <_>
      <rect>
        62 14 3 3</rect></_>
    <_>
      <rect>
        63 2 4 3</rect></_>
    <_>
      <rect>
        63 29 5 3</rect></_>
    <_>
      <rect>
        69 36 2 1</rect></_>
    <_>
      <rect>
        71 2 3 2</rect></_>
    <_>
      <rect>
        71 30 1 1</rect></_>
    <_>
      <rect>
        73 35 1 1</rect></_>
    <_>
      <rect>
        73 36 2 1</rect></_>
    <_>
      <rect>
        74 2 2 2</rect></_>
    <_>
      <rect>
        75 0 1 2</rect></_>
    <_>
      <rect>
        77 4 1 1</rect></_></features></cascade>
</opencv_storage>
