<?xml version="1.0"?>
<opencv_storage>
<stage3>
  <maxWeakCount>9</maxWeakCount>
  <stageThreshold>-1.2458648681640625e+00</stageThreshold>
  <weakClassifiers>
    <_>
      <internalNodes>
        0 -1 201623 2109732688 2142082 1879006840 234487735 2147350521
        528023413 -1082168200 440780606</internalNodes>
      <leafValues>
        -3.4823089838027954e-01 5.5221074819564819e-01</leafValues></_>
    <_>
      <internalNodes>
        0 -1 122375 658351135 490110834 -268521803 755932862 -277479972
        -13123777 -1913380375 678143740</internalNodes>
      <leafValues>
        -4.2512336373329163e-01 4.7009909152984619e-01</leafValues></_>
    <_>
      <internalNodes>
        0 -1 115655 -708583280 1507353105 134748241 -1123397559
        -912269398 -1182138360 -657205105 -1309891028</internalNodes>
      <leafValues>
        -4.0630716085433960e-01 4.8644787073135376e-01</leafValues></_>
    <_>
      <internalNodes>
        0 -1 56083 1073994390 1499267662 4264097 1494299584 420316298
        1260159104 -54405700 1627128072</internalNodes>
      <leafValues>
        -4.9493792653083801e-01 4.1089016199111938e-01</leafValues></_>
    <_>
      <internalNodes>
        0 -1 236902 -597965557 822161667 268505109 680689979 -1065254142
        -1718615674 -1668808477 -529532145</internalNodes>
      <leafValues>
        -4.3095472455024719e-01 5.1028358936309814e-01</leafValues></_>
    <_>
      <internalNodes>
        0 -1 96735 783284931 -3306465 -335835567 -214300392 1180692176
        1566887536 265694303 -827684309</internalNodes>
      <leafValues>
        -3.6716046929359436e-01 6.1582505702972412e-01</leafValues></_>
    <_>
      <internalNodes>
        0 -1 10813 -1005133158 -788164349 33554512 445121030 1216921732
        973210148 -1971207694 1912019114</internalNodes>
      <leafValues>
        -5.5213856697082520e-01 4.4408655166625977e-01</leafValues></_>
    <_>
      <internalNodes>
        0 -1 173076 805779829 -788463487 4210704 1359127816 278540475
        -2004254613 -2000547064 1571586088</internalNodes>
      <leafValues>
        -5.7886463403701782e-01 4.3344336748123169e-01</leafValues></_>
    <_>
      <internalNodes>
        0 -1 178502 154523487 269598730 822313435 319127570 -1726984100
        -1341325303 705479140 1383437251</internalNodes>
      <leafValues>
        -5.4128396511077881e-01 4.6118614077568054e-01</leafValues></_></weakClassifiers></stage3>
</opencv_storage>
