<?xml version="1.0"?>
<opencv_storage>
<stage9>
  <maxWeakCount>8</maxWeakCount>
  <stageThreshold>-1.0759472846984863e+00</stageThreshold>
  <weakClassifiers>
    <_>
      <internalNodes>
        0 -1 151703 605493557 688146801 -1810323740 169120172 1351762371
        -372594287 -123338636 538969808</internalNodes>
      <leafValues>
        -5.7386362552642822e-01 4.8237180709838867e-01</leafValues></_>
    <_>
      <internalNodes>
        0 -1 250612 -1039184835 1677938708 274241434 -1403078649
        1745208069 -1647361535 -1173447424 -525608244</internalNodes>
      <leafValues>
        -4.2889508605003357e-01 5.0435912609100342e-01</leafValues></_>
    <_>
      <internalNodes>
        0 -1 14270 607020574 -1609953024 -690097770 -870549118
        1217651539 604865259 -2113693680 -455030442</internalNodes>
      <leafValues>
        -5.5956131219863892e-01 3.7285745143890381e-01</leafValues></_>
    <_>
      <internalNodes>
        0 -1 237203 -439136997 672190497 -1064619842 1749079312
        1217422444 1914110343 -665884523 74023025</internalNodes>
      <leafValues>
        -5.3308594226837158e-01 4.1010913252830505e-01</leafValues></_>
    <_>
      <internalNodes>
        0 -1 169078 3872023 -856002570 -1613777049 -822296860
        -1342261773 -1616003458 -1125253567 -434066122</internalNodes>
      <leafValues>
        -4.4927367568016052e-01 5.0608289241790771e-01</leafValues></_>
    <_>
      <internalNodes>
        0 -1 139762 1487229183 -1465369295 -554100257 19761888 669945533
        1610315508 207936997 -357258888</internalNodes>
      <leafValues>
        -4.5666772127151489e-01 5.2088737487792969e-01</leafValues></_>
    <_>
      <internalNodes>
        0 -1 222697 -1053465263 286364947 -2130572211 306718084
        -1684415659 -125729909 1761896544 280637967</internalNodes>
      <leafValues>
        -5.3113842010498047e-01 4.6098878979682922e-01</leafValues></_>
    <_>
      <internalNodes>
        0 -1 112034 52187415 -1920777975 1086906833 -1151726846
        -1165571300 998856858 -746542736 -1479636966</internalNodes>
      <leafValues>
        -4.9824860692024231e-01 5.1122033596038818e-01</leafValues></_></weakClassifiers></stage9>
</opencv_storage>
