<?xml version="1.0"?>
<opencv_storage>
<stage17>
  <maxWeakCount>13</maxWeakCount>
  <stageThreshold>-1.3268522024154663e+00</stageThreshold>
  <weakClassifiers>
    <_>
      <internalNodes>
        0 -1 164125 -656032 795095030 -1312297168 1650970610 -1077973016
        473784189 -1074536702 1079368034</internalNodes>
      <leafValues>
        -3.4883719682693481e-01 4.7008547186851501e-01</leafValues></_>
    <_>
      <internalNodes>
        0 -1 219072 -620299574 -1148822992 1757339857 1671547614
        -1507094790 -1749574468 -178353541 -441719317</internalNodes>
      <leafValues>
        -2.4287553131580353e-01 6.1488187313079834e-01</leafValues></_>
    <_>
      <internalNodes>
        0 -1 249652 1421522106 1484023457 257225705 -779809511 -61063510
        326384846 -181625454 -99903602</internalNodes>
      <leafValues>
        -2.9842534661293030e-01 5.6532537937164307e-01</leafValues></_>
    <_>
      <internalNodes>
        0 -1 215952 1404016058 -186832888 1072667692 -84593935 513446536
        -317358732 -2127095910 -82128947</internalNodes>
      <leafValues>
        -3.1398162245750427e-01 5.7694131135940552e-01</leafValues></_>
    <_>
      <internalNodes>
        0 -1 183565 -287193130 2113718856 -1669371383 -1068962011
        -1244270376 -2084733115 -1385392765 -1663114546</internalNodes>
      <leafValues>
        -3.6631584167480469e-01 5.2796190977096558e-01</leafValues></_>
    <_>
      <internalNodes>
        0 -1 256700 -776977772 1609428245 -402758924 -110349163
        416675020 -2021780884 -1094931526 -70289782</internalNodes>
      <leafValues>
        -3.2495877146720886e-01 5.8759462833404541e-01</leafValues></_>
    <_>
      <internalNodes>
        0 -1 102843 -972580023 -1542188520 269500821 23368193 1074273000
        671092792 306894796 1170470447</internalNodes>
      <leafValues>
        -4.4289502501487732e-01 4.4677969813346863e-01</leafValues></_>
    <_>
      <internalNodes>
        0 -1 194360 -1097333444 -511229644 1082167425 836338769
        -2011067728 -240123780 -1410692933 1568172753</internalNodes>
      <leafValues>
        -5.8765953779220581e-01 3.5342723131179810e-01</leafValues></_>
    <_>
      <internalNodes>
        0 -1 272474 -260591224 1687957210 -353591368 -872991772
        -1210853670 -1602273794 1719320249 -641878056</internalNodes>
      <leafValues>
        -3.7750706076622009e-01 5.7962787151336670e-01</leafValues></_>
    <_>
      <internalNodes>
        0 -1 48822 -1893011793 -407064793 687668862 -1213267986
        1441756627 -159991946 -541455 -649087753</internalNodes>
      <leafValues>
        -3.5459750890731812e-01 6.0423088073730469e-01</leafValues></_>
    <_>
      <internalNodes>
        0 -1 230646 -1890368830 -1613030112 1790856923 -906416415
        1845263914 -172667038 -622382343 -1968077162</internalNodes>
      <leafValues>
        -3.6420148611068726e-01 5.5845564603805542e-01</leafValues></_>
    <_>
      <internalNodes>
        0 -1 152269 1655433397 2075983115 -1933821963 1978340386
        -1346995115 -5341187 1294734686 -42464659</internalNodes>
      <leafValues>
        -4.5438933372497559e-01 4.8173454403877258e-01</leafValues></_>
    <_>
      <internalNodes>
        0 -1 236630 -715453673 -1440524279 -1073179762 1417920786
        1241559296 -2046058479 1078794757 -102471626</internalNodes>
      <leafValues>
        -4.7494274377822876e-01 4.6358308196067810e-01</leafValues></_></weakClassifiers></stage17>
</opencv_storage>
