<?xml version="1.0"?>
<opencv_storage>
<stage0>
  <maxWeakCount>6</maxWeakCount>
  <stageThreshold>-1.2537447214126587e+00</stageThreshold>
  <weakClassifiers>
    <_>
      <internalNodes>
        0 -1 155788 -1812138017 2071953397 -1073786763 -1086450576
        -1086407114 -1073938636 800868656 795418632</internalNodes>
      <leafValues>
        -4.6924430131912231e-01 6.4694470167160034e-01</leafValues></_>
    <_>
      <internalNodes>
        0 -1 13852 -929695766 -1660874495 555970776 -649543616
        -780037638 1175011848 -922115940 78767360</internalNodes>
      <leafValues>
        -6.1006295680999756e-01 4.9426177144050598e-01</leafValues></_>
    <_>
      <internalNodes>
        0 -1 85229 -525610434 1260061016 -2063314935 -1591607022
        -2097118898 -1475735552 1152155805 1339532835</internalNodes>
      <leafValues>
        -5.1850908994674683e-01 5.1267158985137939e-01</leafValues></_>
    <_>
      <internalNodes>
        0 -1 172065 -719062604 906314009 1342346773 806420736
        -1019178968 335577101 -2104424166 69196619</internalNodes>
      <leafValues>
        -5.9306544065475464e-01 4.7562098503112793e-01</leafValues></_>
    <_>
      <internalNodes>
        0 -1 192 -2126320914 1360749696 -2147352434 -2080324590
        138494083 -1957526400 -1879031669 1497883335</internalNodes>
      <leafValues>
        -5.3302264213562012e-01 5.1206731796264648e-01</leafValues></_>
    <_>
      <internalNodes>
        0 -1 37479 -251018930 1477756432 33554440 1897382171 38371340
        33685504 1354809482 813007340</internalNodes>
      <leafValues>
        -6.7925506830215454e-01 3.9624318480491638e-01</leafValues></_></weakClassifiers></stage0>
</opencv_storage>
