<?xml version="1.0"?>
<opencv_storage>
<stage12>
  <maxWeakCount>11</maxWeakCount>
  <stageThreshold>-9.9986785650253296e-01</stageThreshold>
  <weakClassifiers>
    <_>
      <internalNodes>
        0 -1 185871 615317641 -1857910768 638996663 722604052
        -1308097535 21561492 562956304 186778628</internalNodes>
      <leafValues>
        -6.3218390941619873e-01 4.2195668816566467e-01</leafValues></_>
    <_>
      <internalNodes>
        0 -1 218820 -744295206 -47037080 -1363965855 -674652895
        -1692948598 -1877042321 -1917526021 -75265893</internalNodes>
      <leafValues>
        -2.4831324815750122e-01 7.3668473958969116e-01</leafValues></_>
    <_>
      <internalNodes>
        0 -1 256450 -856748287 1304182312 -1073987920 -2005913930
        2013206356 1878490997 -155714643 -494146250</internalNodes>
      <leafValues>
        -3.8206803798675537e-01 4.7672915458679199e-01</leafValues></_>
    <_>
      <internalNodes>
        0 -1 152121 649018047 2071625723 -269045965 -525947081
        1862231821 -311525546 -279158597 -364978246</internalNodes>
      <leafValues>
        -3.7783336639404297e-01 5.7030707597732544e-01</leafValues></_>
    <_>
      <internalNodes>
        0 -1 185706 611078693 -1541758933 1141899418 -1701527043
        -943308720 -1158512171 -257262848 -836126830</internalNodes>
      <leafValues>
        -4.5844957232475281e-01 4.5719841122627258e-01</leafValues></_>
    <_>
      <internalNodes>
        0 -1 32118 1148322397 360857669 1888524248 689976960 54528522
        1942950018 -804490532 469390355</internalNodes>
      <leafValues>
        -5.6169873476028442e-01 3.8589373230934143e-01</leafValues></_>
    <_>
      <internalNodes>
        0 -1 273001 407044586 1631682562 1350780930 -1784970936
        -1610573030 318964874 1233625225 2013526519</internalNodes>
      <leafValues>
        -5.0248539447784424e-01 4.2849248647689819e-01</leafValues></_>
    <_>
      <internalNodes>
        0 -1 187650 -9782018 1545244845 659184832 -572453215 -1918849360
        -203379380 1404001482 -545026005</internalNodes>
      <leafValues>
        -3.2390177249908447e-01 6.9234693050384521e-01</leafValues></_>
    <_>
      <internalNodes>
        0 -1 15131 -767038589 813891855 49166 -656123627 1119064248
        -1535033336 -475854526 1209000655</internalNodes>
      <leafValues>
        -4.5191425085067749e-01 5.3249841928482056e-01</leafValues></_>
    <_>
      <internalNodes>
        0 -1 134664 -68429497 -585288671 1760098810 -1405815427
        -1258756440 576338638 1684189814 -80283922</internalNodes>
      <leafValues>
        -3.3797767758369446e-01 6.6747426986694336e-01</leafValues></_>
    <_>
      <internalNodes>
        0 -1 235903 1972785384 -260898408 270565409 -1282080660
        -1811881310 -1163837438 671563993 1397796969</internalNodes>
      <leafValues>
        -5.5283832550048828e-01 4.3304237723350525e-01</leafValues></_></weakClassifiers></stage12>
</opencv_storage>
