<?xml version="1.0"?>
<opencv_storage>
<stage6>
  <maxWeakCount>8</maxWeakCount>
  <stageThreshold>-4.8009291291236877e-01</stageThreshold>
  <weakClassifiers>
    <_>
      <internalNodes>
        0 -1 155753 925258235 -1745272904 -1346376963 506866730
        -1241694881 -8519713 468469716 199231136</internalNodes>
      <leafValues>
        -4.7685185074806213e-01 5.1883560419082642e-01</leafValues></_>
    <_>
      <internalNodes>
        0 -1 219096 -628566896 -785015624 1005090347 -614623856
        -1244864342 -1203868660 436252088 -83164213</internalNodes>
      <leafValues>
        -3.2111349701881409e-01 7.0916432142257690e-01</leafValues></_>
    <_>
      <internalNodes>
        0 -1 114660 1932562576 -743667808 -746272016 2003176672
        -1238986598 -1862783764 -940202005 465240248</internalNodes>
      <leafValues>
        -4.3863758444786072e-01 5.5128306150436401e-01</leafValues></_>
    <_>
      <internalNodes>
        0 -1 175465 -584525608 448294116 900546525 1428947441
        -1670844744 -1427514923 437552379 185206155</internalNodes>
      <leafValues>
        -4.6842753887176514e-01 5.5833905935287476e-01</leafValues></_>
    <_>
      <internalNodes>
        0 -1 233300 -618229552 -683068544 980031721 -135578916
        -1205296968 -1397801957 -811551541 -14692213</internalNodes>
      <leafValues>
        -3.2597064971923828e-01 8.4628498554229736e-01</leafValues></_>
    <_>
      <internalNodes>
        0 -1 205445 -794152652 -103270064 1040087167 498205877
        -236935256 -1141093624 -1235247394 -1957617381</internalNodes>
      <leafValues>
        -4.3513694405555725e-01 6.3897407054901123e-01</leafValues></_>
    <_>
      <internalNodes>
        0 -1 212914 -1818208128 -742650672 -1344340036 1432949101
        -1560755726 -2028164796 203601887 -1701903208</internalNodes>
      <leafValues>
        -4.6685528755187988e-01 5.9674459695816040e-01</leafValues></_>
    <_>
      <internalNodes>
        0 -1 272477 456143056 1444010009 1224841660 -585957269 805448416
        -97910608 704684731 161744520</internalNodes>
      <leafValues>
        -5.5947428941726685e-01 5.1249146461486816e-01</leafValues></_></weakClassifiers></stage6>
</opencv_storage>
