<?xml version="1.0"?>
<opencv_storage>
<stage7>
  <maxWeakCount>9</maxWeakCount>
  <stageThreshold>-6.9938534498214722e-01</stageThreshold>
  <weakClassifiers>
    <_>
      <internalNodes>
        0 -1 212120 1341125904 536919920 1215452236 -1342449459
        -42154348 778370557 -430222156 512061286</internalNodes>
      <leafValues>
        -3.7684211134910583e-01 5.1466667652130127e-01</leafValues></_>
    <_>
      <internalNodes>
        0 -1 8555 1128647086 -1723555132 1627390552 -1886657686 73218
        -268173272 1217255906 224621926</internalNodes>
      <leafValues>
        -5.0905108451843262e-01 3.5997945070266724e-01</leafValues></_>
    <_>
      <internalNodes>
        0 -1 26480 1774896078 -780592750 252082255 -43454480 -1141572120
        -637747511 863089835 -807698226</internalNodes>
      <leafValues>
        -3.2130622863769531e-01 5.9731781482696533e-01</leafValues></_>
    <_>
      <internalNodes>
        0 -1 4071 -964522801 -784207018 1141113874 873644250 1539377484
        318845440 1682097868 2076566803</internalNodes>
      <leafValues>
        -4.6296581625938416e-01 4.1791540384292603e-01</leafValues></_>
    <_>
      <internalNodes>
        0 -1 302 -1635622738 -505294795 -268351023 1833472016 -912160065
        1662625794 -1853717017 -164503289</internalNodes>
      <leafValues>
        -4.7832071781158447e-01 4.3486022949218750e-01</leafValues></_>
    <_>
      <internalNodes>
        0 -1 61983 1907963268 937230347 630718609 -645074880 739903764
        1919453204 -1018580183 1403233482</internalNodes>
      <leafValues>
        -5.2659589052200317e-01 4.1873556375503540e-01</leafValues></_>
    <_>
      <internalNodes>
        0 -1 189228 -711331558 1454822528 620876032 -492846567
        -1862138838 210305040 1094912120 1460497945</internalNodes>
      <leafValues>
        -5.6665211915969849e-01 3.8566491007804871e-01</leafValues></_>
    <_>
      <internalNodes>
        0 -1 131766 741037371 800010233 -26214540 -553902218 -2038440941
        -1358954505 1816035303 -189534909</internalNodes>
      <leafValues>
        -4.3374872207641602e-01 5.3785401582717896e-01</leafValues></_>
    <_>
      <internalNodes>
        0 -1 107626 1671115422 -989609390 91295 646204496 -1593716590
        -2003632124 834675966 1212438677</internalNodes>
      <leafValues>
        -6.1065465211868286e-01 3.8063544034957886e-01</leafValues></_></weakClassifiers></stage7>
</opencv_storage>
