<?xml version="1.0"?>
<opencv_storage>
<stage1>
  <maxWeakCount>10</maxWeakCount>
  <stageThreshold>-9.4735193252563477e-01</stageThreshold>
  <weakClassifiers>
    <_>
      <internalNodes>
        0 -1 4269 -822302978 2012123063 652396092 -2108758920 1013327380
        1036351317 1691436070 1702329847</internalNodes>
      <leafValues>
        -4.7698745131492615e-01 5.5971479415893555e-01</leafValues></_>
    <_>
      <internalNodes>
        0 -1 226310 -111426680 403050497 1612754953 2117645 566920200
        763494530 671201384 551012443</internalNodes>
      <leafValues>
        -5.5402255058288574e-01 4.2457020282745361e-01</leafValues></_>
    <_>
      <internalNodes>
        0 -1 107249 -989556194 1553530900 16794912 151945802 -770318194
        -926474235 42701528 529146246</internalNodes>
      <leafValues>
        -5.6351161003112793e-01 4.0615499019622803e-01</leafValues></_>
    <_>
      <internalNodes>
        0 -1 34527 1363407306 -1794027327 536871052 84266319 -2012569462
        940155040 168411274 559908235</internalNodes>
      <leafValues>
        -5.0720256567001343e-01 4.5206028223037720e-01</leafValues></_>
    <_>
      <internalNodes>
        0 -1 222276 -220700026 1881766060 625685876 -1757083493
        1870438566 862233329 1368118666 -1021606241</internalNodes>
      <leafValues>
        -3.8311940431594849e-01 5.9726208448410034e-01</leafValues></_>
    <_>
      <internalNodes>
        0 -1 156974 -81156232 -202547344 -2129945 -1082779607 -10046430
        -624951435 1322159389 -295018935</internalNodes>
      <leafValues>
        -4.1721382737159729e-01 5.7122200727462769e-01</leafValues></_>
    <_>
      <internalNodes>
        0 -1 132852 1393514475 -665518075 246147 -687336817 -1602039797
        -1073446895 136841608 2104165388</internalNodes>
      <leafValues>
        -4.8948511481285095e-01 4.7308200597763062e-01</leafValues></_>
    <_>
      <internalNodes>
        0 -1 9334 -1034263601 1006765142 17863114 1087506952 1644372113
        -788365307 -1719627718 1455897538</internalNodes>
      <leafValues>
        -5.6480115652084351e-01 4.2695474624633789e-01</leafValues></_>
    <_>
      <internalNodes>
        0 -1 86954 1290226783 -1121426648 1824004821 706870376 140961514
        -48945428 1846333676 439050150</internalNodes>
      <leafValues>
        -4.5371562242507935e-01 5.5032056570053101e-01</leafValues></_>
    <_>
      <internalNodes>
        0 -1 212784 -1012936622 -151672224 -160818147 1598962414
        -1723279394 -167092860 -580613397 -787750450</internalNodes>
      <leafValues>
        -4.1809678077697754e-01 6.8177700042724609e-01</leafValues></_></weakClassifiers></stage1>
</opencv_storage>
