<?xml version="1.0"?>
<opencv_storage>
<stage8>
  <maxWeakCount>10</maxWeakCount>
  <stageThreshold>-9.2556309700012207e-01</stageThreshold>
  <weakClassifiers>
    <_>
      <internalNodes>
        0 -1 163909 -2106048 984940209 -1091113198 1147330503 -948449404
        -1669988355 -848148604 1077272339</internalNodes>
      <leafValues>
        -3.8493722677230835e-01 5.2049911022186279e-01</leafValues></_>
    <_>
      <internalNodes>
        0 -1 132960 -282390753 -1845476601 -1861793706 -536333537
        -658814833 1224868488 8520248 1591012100</internalNodes>
      <leafValues>
        -4.3427833914756775e-01 4.1117954254150391e-01</leafValues></_>
    <_>
      <internalNodes>
        0 -1 40242 -962357298 -1048038008 -1073508340 21578188
        -905507942 1385570435 -1072872694 624230931</internalNodes>
      <leafValues>
        -4.9745607376098633e-01 3.6786058545112610e-01</leafValues></_>
    <_>
      <internalNodes>
        0 -1 156329 1790605919 -287047874 1861398448 -215548368
        1862160348 -1621786628 1095626850 -622150500</internalNodes>
      <leafValues>
        -3.8147863745689392e-01 5.1687937974929810e-01</leafValues></_>
    <_>
      <internalNodes>
        0 -1 160547 -1560806977 -307810305 -285478953 -123048026
        1157381703 -83921090 1860009696 -153233781</internalNodes>
      <leafValues>
        -4.0436768531799316e-01 5.4218417406082153e-01</leafValues></_>
    <_>
      <internalNodes>
        0 -1 24052 -514920254 -987545600 -1055829940 -134113212 4739216
        1073872914 1082311366 1518387561</internalNodes>
      <leafValues>
        -5.7626247406005859e-01 3.7163871526718140e-01</leafValues></_>
    <_>
      <internalNodes>
        0 -1 178487 1507408348 -1976291071 -486487920 56295445
        1073971819 209821705 9486471 869430221</internalNodes>
      <leafValues>
        -5.6354987621307373e-01 3.8360562920570374e-01</leafValues></_>
    <_>
      <internalNodes>
        0 -1 241951 -778057984 70322195 -1056962175 71557141 403259689
        -662634496 -493245909 1217395427</internalNodes>
      <leafValues>
        -4.8337331414222717e-01 4.7730135917663574e-01</leafValues></_>
    <_>
      <internalNodes>
        0 -1 33162 -1273048979 -1297451884 1878814180 -1472289716
        -1109178939 -1031897091 -562045512 -1147101390</internalNodes>
      <leafValues>
        -3.8892000913619995e-01 5.8959782123565674e-01</leafValues></_>
    <_>
      <internalNodes>
        0 -1 227490 1902925567 -2099085713 1557904981 1806854011
        -1789561136 -1603552321 1014919505 -972948185</internalNodes>
      <leafValues>
        -4.1677063703536987e-01 5.4815834760665894e-01</leafValues></_></weakClassifiers></stage8>
</opencv_storage>
