<?xml version="1.0"?>
<opencv_storage>
<stage15>
  <maxWeakCount>10</maxWeakCount>
  <stageThreshold>-8.9265501499176025e-01</stageThreshold>
  <weakClassifiers>
    <_>
      <internalNodes>
        0 -1 11231 -834736426 -822231178 645427038 -1343345738
        1869890644 1853718357 1917099571 216364884</internalNodes>
      <leafValues>
        -3.3606556057929993e-01 5.0719422101974487e-01</leafValues></_>
    <_>
      <internalNodes>
        0 -1 248841 -582228703 25182529 -1340925939 536896259 -963727080
        1345034914 1646621408 697821510</internalNodes>
      <leafValues>
        -4.2011854052543640e-01 3.8331994414329529e-01</leafValues></_>
    <_>
      <internalNodes>
        0 -1 158524 -959295039 -2133747048 -770699247 -2130671594
        -511571386 -1744764283 -2046729120 -796473759</internalNodes>
      <leafValues>
        -4.3428164720535278e-01 3.8658544421195984e-01</leafValues></_>
    <_>
      <internalNodes>
        0 -1 75361 1725809375 1540288832 -1766319445 1810317105
        -923018098 2027934824 -559281409 -1817975098</internalNodes>
      <leafValues>
        -2.8627663850784302e-01 6.2148177623748779e-01</leafValues></_>
    <_>
      <internalNodes>
        0 -1 261450 1232936215 1964838758 2097151963 -1300742478
        1799274269 492529534 -2049106543 -455616709</internalNodes>
      <leafValues>
        -3.2574027776718140e-01 6.0712254047393799e-01</leafValues></_>
    <_>
      <internalNodes>
        0 -1 190320 -419100752 -1999588590 564373825 -1942421440
        67258923 -620052480 646188969 1871917232</internalNodes>
      <leafValues>
        -5.2137553691864014e-01 3.7865677475929260e-01</leafValues></_>
    <_>
      <internalNodes>
        0 -1 194404 1690527989 -1684335609 1225265161 1194468358
        -490684257 -91389430 1107830814 -622404864</internalNodes>
      <leafValues>
        -4.5313808321952820e-01 4.9722772836685181e-01</leafValues></_>
    <_>
      <internalNodes>
        0 -1 150858 -1659001314 1297188965 4176 3343619 402927884
        1024073928 1254721702 1149023522</internalNodes>
      <leafValues>
        -5.9504508972167969e-01 3.8220483064651489e-01</leafValues></_>
    <_>
      <internalNodes>
        0 -1 174583 -1953772748 -1809315259 537493529 764616705
        -1556037488 -937918260 1116215487 1706046857</internalNodes>
      <leafValues>
        -6.3030290603637695e-01 3.1738314032554626e-01</leafValues></_>
    <_>
      <internalNodes>
        0 -1 175261 -16929141 489406044 -1111709967 -1344422531
        2111533102 -570490914 225813885 -552435958</internalNodes>
      <leafValues>
        -3.8472732901573181e-01 5.7973915338516235e-01</leafValues></_></weakClassifiers></stage15>
</opencv_storage>
