<?xml version="1.0"?>
<opencv_storage>
<stage11>
  <maxWeakCount>10</maxWeakCount>
  <stageThreshold>-6.7997300624847412e-01</stageThreshold>
  <weakClassifiers>
    <_>
      <internalNodes>
        0 -1 193110 -1248958575 959239028 -2147302184 1136685632
        -1333637116 -381156992 262196 50334816</internalNodes>
      <leafValues>
        -5.7894736528396606e-01 4.4444444775581360e-01</leafValues></_>
    <_>
      <internalNodes>
        0 -1 212485 -609619736 -781478695 1394507466 -40654727
        -1441465173 -515621044 -1500242486 -1081370481</internalNodes>
      <leafValues>
        -2.5831085443496704e-01 6.7534685134887695e-01</leafValues></_>
    <_>
      <internalNodes>
        0 -1 251204 327488192 -772293052 1272987560 2042078536
        -1199972950 -1510730526 487891434 -1117805377</internalNodes>
      <leafValues>
        -3.1724503636360168e-01 5.7167184352874756e-01</leafValues></_>
    <_>
      <internalNodes>
        0 -1 218594 240125970 -1092708072 310956753 1061423402 59902266
        -208728022 1331103236 -1099526752</internalNodes>
      <leafValues>
        -5.6518715620040894e-01 3.4096607565879822e-01</leafValues></_>
    <_>
      <internalNodes>
        0 -1 20308 705769343 -1473708266 -1426145300 -1125171232
        2139027451 -235438082 2046688756 -185795074</internalNodes>
      <leafValues>
        -3.8873523473739624e-01 5.2247691154479980e-01</leafValues></_>
    <_>
      <internalNodes>
        0 -1 273570 294553762 1349324800 353026216 1897480624
        -1342115445 163872 -310136357 319389738</internalNodes>
      <leafValues>
        -5.6406813859939575e-01 3.8243880867958069e-01</leafValues></_>
    <_>
      <internalNodes>
        0 -1 134970 321689654 527631545 -281035043 -1612747662
        -686125832 -1628553222 -1287373121 -1020584764</internalNodes>
      <leafValues>
        -4.3328413367271423e-01 5.3249424695968628e-01</leafValues></_>
    <_>
      <internalNodes>
        0 -1 261432 1135242 151060484 268517504 -641120956 -1744561528
        134676680 -1728022325 1528996546</internalNodes>
      <leafValues>
        -4.8697337508201599e-01 4.7560355067253113e-01</leafValues></_>
    <_>
      <internalNodes>
        0 -1 3784 1620297381 1611677762 328306762 -460804704 1084323967
        2097481776 1779942229 -960047537</internalNodes>
      <leafValues>
        -5.1787978410720825e-01 4.8463508486747742e-01</leafValues></_>
    <_>
      <internalNodes>
        0 -1 238230 -109971244 1371330633 929081965 -1074160145
        -542268674 -1619747018 -612701461 -1173670246</internalNodes>
      <leafValues>
        -3.4375682473182678e-01 7.0767605304718018e-01</leafValues></_></weakClassifiers></stage11>
</opencv_storage>
