<?xml version="1.0"?>
<opencv_storage>
<stage16>
  <maxWeakCount>12</maxWeakCount>
  <stageThreshold>-1.0864704847335815e+00</stageThreshold>
  <weakClassifiers>
    <_>
      <internalNodes>
        0 -1 29236 -913956346 -1883242480 360747080 -1467445030 35651588
        859832449 1124080432 1098362882</internalNodes>
      <leafValues>
        -5.3103446960449219e-01 4.2290076613426208e-01</leafValues></_>
    <_>
      <internalNodes>
        0 -1 189854 -179967608 63169072 -1861943024 -1799110510
        269550788 146833540 1130840065 696103519</internalNodes>
      <leafValues>
        -5.1446068286895752e-01 3.0715885758399963e-01</leafValues></_>
    <_>
      <internalNodes>
        0 -1 125023 -1152826145 -1633015038 1408514227 1302444048
        -890245432 -844714035 -440577179 -170666514</internalNodes>
      <leafValues>
        -2.8621184825897217e-01 5.8894282579421997e-01</leafValues></_>
    <_>
      <internalNodes>
        0 -1 201330 272765856 -620494831 318816594 -1002028642
        -1031208290 -1945718733 -2038361976 -897592920</internalNodes>
      <leafValues>
        -4.2836570739746094e-01 4.1034919023513794e-01</leafValues></_>
    <_>
      <internalNodes>
        0 -1 133007 -770015105 -938368668 541331701 593961489 210952
        -1308571616 -1981245235 1832000186</internalNodes>
      <leafValues>
        -5.0558555126190186e-01 3.7654885649681091e-01</leafValues></_>
    <_>
      <internalNodes>
        0 -1 175612 1520571842 337648553 2128803176 1428968609 879280616
        -2059180659 740752365 -1069042366</internalNodes>
      <leafValues>
        -4.1622003912925720e-01 4.8618859052658081e-01</leafValues></_>
    <_>
      <internalNodes>
        0 -1 2000 1288418735 1679458758 437326102 -2067430834 1346503177
        -1369436150 1476923458 -1236933936</internalNodes>
      <leafValues>
        -5.2762150764465332e-01 3.8187366724014282e-01</leafValues></_>
    <_>
      <internalNodes>
        0 -1 19368 -2141612018 658768001 -2146545564 -794193786
        2015543500 740295680 -1585411865 78860444</internalNodes>
      <leafValues>
        -6.7607814073562622e-01 2.8200694918632507e-01</leafValues></_>
    <_>
      <internalNodes>
        0 -1 250853 1324732163 247199551 -1052938 683830330 -277478032
        -270599372 -4721030 -377487601</internalNodes>
      <leafValues>
        -4.5648580789566040e-01 4.6318569779396057e-01</leafValues></_>
    <_>
      <internalNodes>
        0 -1 271395 1165945108 1494335656 822170375 2098016402
        1370091798 35880960 619217101 32728018</internalNodes>
      <leafValues>
        -5.4888027906417847e-01 3.8647472858428955e-01</leafValues></_>
    <_>
      <internalNodes>
        0 -1 144700 -716465517 -2004440338 1819999419 823402197
        -337674267 -606634666 651459470 -824987757</internalNodes>
      <leafValues>
        -3.7998455762863159e-01 6.1457109451293945e-01</leafValues></_>
    <_>
      <internalNodes>
        0 -1 191434 -707129218 -1146182865 524492462 1607151053
        -277164136 -980523050 -1090398391 1210389504</internalNodes>
      <leafValues>
        -4.4446179270744324e-01 5.1514875888824463e-01</leafValues></_></weakClassifiers></stage16>
</opencv_storage>
